{"learner":{"attributes":{"scikit_learn":"{\"_estimator_type\": \"classifier\"}"},"feature_names":[],"feature_types":[],"gradient_booster":{"model":{"cats":{"enc":[],"feature_segments":[],"sorted_idx":[]},"gbtree_model_param":{"num_parallel_tree":"1","num_trees":"100"},"iteration_indptr":[0,1,2,3,4,5,6,7,8,9,10,11,12,13,14,15,16,17,18,19,20,21,22,23,24,25,26,27,28,29,30,31,32,33,34,35,36,37,38,39,40,41,42,43,44,45,46,47,48,49,50,51,52,53,54,55,56,57,58,59,60,61,62,63,64,65,66,67,68,69,70,71,72,73,74,75,76,77,78,79,80,81,82,83,84,85,86,87,88,89,90,91,92,93,94,95,96,97,98,99,100],"tree_info":[0,0,0,0,0,0,0,0,0,0,0,0,0,0,0,0,0,0,0,0,0,0,0,0,0,0,0,0,0,0,0,0,0,0,0,0,0,0,0,0,0,0,0,0,0,0,0,0,0,0,0,0,0,0,0,0,0,0,0,0,0,0,0,0,0,0,0,0,0,0,0,0,0,0,0,0,0,0,0,0,0,0,0,0,0,0,0,0,0,0,0,0,0,0,0,0,0,0,0,0],"trees":[{"base_weights":[-1.0215021E-7,-7.8488035E0,2.994307E-1,-1.4141421E1,2.3393926E-1,-1.8366497E1,1.5374751E-1,-6.3602967E0,-1.6403912E0],"categories":[],"categories_nodes":[],"categories_segments":[],"categories_sizes":[],"default_left":[0,0,0,0,0,0,0,0,0],"id":0,"left_children":[1,3,-1,5,-1,7,-1,-1,-1],"loss_changes":[5.5636426E2,4.460744E2,0E0,2.995205E2,0E0,1.8038452E1,0E0,0E0,0E0],"parents":[2147483647,0,0,1,1,3,3,5,5],"right_children":[2,4,-1,6,-1,8,-1,-1,-1],"split_conditions":[9.934645E-6,3E0,2.994307E-1,3.3046455E1,2.3393926E-1,5.4108715E0,1.5374751E-1,-6.3602967E0,-1.6403912E0],"split_indices":[14,10,0,0,0,7,0,0,0],"split_type":[0,0,0,0,0,0,0,0,0],"sum_hessian":[6.902E1,7.0124316E0,6.2007565E1,3.6856678E0,3.3267636E0,2.6641717E0,1.0214959E0,1.6564798E0,1.007692E0],"tree_param":{"num_deleted":"0","num_feature":"15","num_nodes":"9","size_leaf_vector":"1"}},{"base_weights":[1.3761427E0,1.911063E0,5.520405E-1,3.5860908E0,2.9200754E-1,-1.1110457E0,9.1991985E-1,1.8820847E0,2.1107852E0,-2.5478938E0,2.1784924E-1,2.8801763E-1,1.842764E-2,1.530409E0,2.3879908E-1,-1.0658361E0,-5.0227843E-2],"categories":[],"categories_nodes":[],"categories_segments":[],"categories_sizes":[],"default_left":[0,0,0,0,0,0,0,0,0,0,0,0,0,0,0,0,0],"id":1,"left_children":[1,3,5,7,-1,9,11,-1,13,15,-1,-1,-1,-1,-1,-1,-1],"loss_changes":[2.8514763E1,5.9759598E1,1.8035673E1,4.2583817E1,0E0,1.6342716E1,7.445526E-1,0E0,3.7606926E1,7.305071E0,0E0,0E0,0E0,0E0,0E0,0E0,0E0],"parents":[2147483647,0,0,1,1,2,2,3,3,5,5,6,6,8,8,9,9],"right_children":[2,4,6,8,-1,10,12,-1,14,16,-1,-1,-1,-1,-1,-1,-1],"split_conditions":[5.086545E0,9.934645E-6,6.527876E-6,5.831314E3,2.9200754E-1,6.979022E0,1.14E2,1.8820847E0,3.8630607E0,2.3172E1,2.1784924E-1,2.8801763E-1,1.842764E-2,1.530409E0,2.3879908E-1,-1.0658361E0,-5.0227843E-2],"split_indices":[7,14,14,2,0,7,13,0,1,0,0,0,0,0,0,0,0],"split_type":[0,0,0,0,0,0,0,0,0,0,0,0,0,0,0,0,0],"sum_hessian":[6.607764E1,3.9269234E1,2.6808405E1,1.3080004E1,2.6189228E1,4.4900274E0,2.2318377E1,3.4828937E0,9.597111E0,2.3024757E0,2.1875517E0,2.1208473E1,1.109905E0,2.0512993E0,7.545811E0,1.27273E0,1.0297457E0],"tree_param":{"num_deleted":"0","num_feature":"15","num_nodes":"17","size_leaf_vector":"1"}},{"base_weights":[1.0140889E0,1.281917E0,4.3088558E-1,1.7719868E0,9.7466075E-1,-8.776645E-1,8.898438E-1,3.6248806E-1,1.9741935E0,2.3001188E-1,1.0418832E0,-1.6819677E0,2.0180954E-1,2.8385735E-1,5.606591E-3,2.9791483E-1,-1.4061679E-1,6.361204E-1,1.05185136E-1,2.9180968E-1,-1.7313279E-1,1.6118497E-1,3.35374E-1,-7.703845E-2,-6.541863E-1],"categories":[],"categories_nodes":[],"categories_segments":[],"categories_sizes":[],"default_left":[0,0,0,0,0,0,0,0,0,0,0,0,0,0,0,0,0,0,0,0,0,0,0,0,0],"id":2,"left_children":[1,3,5,7,9,11,13,15,17,19,21,23,-1,-1,-1,-1,-1,-1,-1,-1,-1,-1,-1,-1,-1],"loss_changes":[9.394707E0,4.7679825E0,1.3721926E1,3.6734886E0,1.1987324E0,8.73621E0,7.8976154E-1,2.120138E0,2.4001312E0,2.7568123E0,3.9961624E-1,2.4967155E0,0E0,0E0,0E0,0E0,0E0,0E0,0E0,0E0,0E0,0E0,0E0,0E0,0E0],"parents":[2147483647,0,0,1,1,2,2,3,3,4,4,5,5,6,6,7,7,8,8,9,9,10,10,11,11],"right_children":[2,4,6,8,10,12,14,16,18,20,22,24,-1,-1,-1,-1,-1,-1,-1,-1,-1,-1,-1,-1,-1],"split_conditions":[5.4481955E0,6.8679074E-6,6.527876E-6,1E0,8.353728E-6,6.979022E0,1.14E2,8.681134E3,4.5159025E0,3E0,1E0,2.9705132E-6,2.0180954E-1,2.8385735E-1,5.606591E-3,2.9791483E-1,-1.4061679E-1,6.361204E-1,1.05185136E-1,2.9180968E-1,-1.7313279E-1,1.6118497E-1,3.35374E-1,-7.703845E-2,-6.541863E-1],"split_indices":[7,14,14,8,14,7,13,2,7,9,10,14,0,0,0,0,0,0,0,0,0,0,0,0,0],"split_type":[0,0,0,0,0,0,0,0,0,0,0,0,0,0,0,0,0,0,0,0,0,0,0,0,0],"sum_hessian":[6.2682312E1,4.213454E1,2.0547773E1,1.4399844E1,2.7734697E1,5.098625E0,1.5449147E1,2.1569936E0,1.224285E1,2.6625257E0,2.507217E1,3.3011537E0,1.7974715E0,1.4429685E1,1.0194627E0,1.115822E0,1.0411717E0,1.0950702E1,1.2921485E0,1.2797732E0,1.3827524E0,4.3393407E0,2.073283E1,1.2483346E0,2.052819E0],"tree_param":{"num_deleted":"0","num_feature":"15","num_nodes":"25","size_leaf_vector":"1"}},{"base_weights":[8.320202E-1,6.9474566E-1,1.7187822E0,1.324379E0,4.3793103E-1,6.484698E-1,2.1991636E-1,9.847258E-2,1.3787278E0,-1.4769803E-1,2.9429874E-1,4.9040142E-1,2.5483915E-1,4.0483862E-1,-2.3709829E-1],"categories":[],"categories_nodes":[],"categories_segments":[],"categories_sizes":[],"default_left":[0,0,0,0,0,0,0,0,0,0,0,0,0,0,0],"id":3,"left_children":[1,3,5,7,9,-1,-1,-1,11,13,-1,-1,-1,-1,-1],"loss_changes":[5.787613E0,7.7223225E0,1.4750843E0,3.2601738E-1,1.2218504E1,0E0,0E0,0E0,4.1636848E-1,1.9476606E1,0E0,0E0,0E0,0E0,0E0],"parents":[2147483647,0,0,1,1,2,2,3,3,4,4,8,8,9,9],"right_children":[2,4,6,8,10,-1,-1,-1,12,14,-1,-1,-1,-1,-1],"split_conditions":[1E0,4.464482E0,9.692115E-6,2.9273217E0,9.692115E-6,6.484698E-1,2.1991636E-1,9.847258E-2,9.934645E-6,5.9426904E3,2.9429874E-1,4.9040142E-1,2.5483915E-1,4.0483862E-1,-2.3709829E-1],"split_indices":[6,1,14,0,14,0,0,0,14,2,0,0,0,0,0],"split_type":[0,0,0,0,0,0,0,0,0,0,0,0,0,0,0],"sum_hessian":[5.6354275E1,5.0344234E1,6.0100393E0,1.3381013E1,3.6963223E1,3.324036E0,2.6860034E0,1.0564963E0,1.2324516E1,1.8134933E1,1.8828287E1,6.8994694E0,5.425047E0,5.116023E0,1.3018911E1],"tree_param":{"num_deleted":"0","num_feature":"15","num_nodes":"15","size_leaf_vector":"1"}},{"base_weights":[7.4305403E-1,9.368147E-1,2.9328185E-1,7.893569E-1,1.5042026E0,-4.5708784E-1,2.6950184E-1,6.2160045E-1,4.5494148E-1,5.208484E-1,1.9675338E-1,-9.968944E-1,2.1242315E-1,3.0146188E-1,4.4650912E-2,-4.4451764E-1,1.662982E-1],"categories":[],"categories_nodes":[],"categories_segments":[],"categories_sizes":[],"default_left":[0,0,0,0,0,0,0,0,0,0,0,0,0,0,0,0,0],"id":4,"left_children":[1,3,5,7,9,11,-1,13,-1,-1,-1,15,-1,-1,-1,-1,-1],"loss_changes":[4.0372505E0,1.6677952E0,7.8352966E0,2.61796E0,2.9294968E-2,5.7142057E0,0E0,4.4551945E0,0E0,0E0,0E0,5.2263255E0,0E0,0E0,0E0,0E0,0E0],"parents":[2147483647,0,0,1,1,2,2,3,3,4,4,5,5,7,7,11,11],"right_children":[2,4,6,8,10,12,-1,14,-1,-1,-1,16,-1,-1,-1,-1,-1],"split_conditions":[5.4481955E0,1E0,8.353728E-6,1E0,9.934645E-6,6.979022E0,2.6950184E-1,1.0447454E4,4.5494148E-1,5.208484E-1,1.9675338E-1,3E0,2.1242315E-1,3.0146188E-1,4.4650912E-2,-4.4451764E-1,1.662982E-1],"split_indices":[7,4,14,6,14,7,0,2,0,0,0,10,0,0,0,0,0],"split_type":[0,0,0,0,0,0,0,0,0,0,0,0,0,0,0,0,0],"sum_hessian":[4.8478947E1,3.312564E1,1.5353305E1,2.8190464E1,4.935177E0,6.9628253E0,8.39048E0,2.4412918E1,3.777546E0,3.0537288E0,1.8814481E0,4.8570375E0,2.1057878E0,1.2860949E1,1.155197E1,3.734598E0,1.1224397E0],"tree_param":{"num_deleted":"0","num_feature":"15","num_nodes":"17","size_leaf_vector":"1"}},{"base_weights":[6.267816E-1,3.415242E-1,4.510335E-1,1.2238737E-1,2.7721533E-1,-1.3646917E-1,4.1793266E-1,3.136919E-1,-1.536067E-1],"categories":[],"categories_nodes":[],"categories_segments":[],"categories_sizes":[],"default_left":[0,0,0,0,0,0,0,0,0],"id":5,"left_children":[1,-1,3,5,-1,7,-1,-1,-1],"loss_changes":[3.5606709E0,0E0,5.387048E0,7.436197E0,0E0,9.064314E0,0E0,0E0,0E0],"parents":[2147483647,0,0,2,2,3,3,5,5],"right_children":[2,-1,4,6,-1,8,-1,-1,-1],"split_conditions":[4.1928654E0,3.415242E-1,9.692115E-6,1E0,2.7721533E-1,5.9426904E3,4.1793266E-1,3.136919E-1,-1.536067E-1],"split_indices":[1,0,14,6,0,2,0,0,0],"split_type":[0,0,0,0,0,0,0,0,0],"sum_hessian":[4.430924E1,9.928412E0,3.4380825E1,2.1028942E1,1.3351885E1,1.8211676E1,2.817265E0,3.9606578E0,1.4251019E1],"tree_param":{"num_deleted":"0","num_feature":"15","num_nodes":"9","size_leaf_vector":"1"}},{"base_weights":[5.610825E-1,4.1193956E-1,3.7695736E-1,1.558772E-1,2.7400348E-1,3.2003176E-1,-1.0463139E-1,2.8702542E-1,-1.1857182E-1],"categories":[],"categories_nodes":[],"categories_segments":[],"categories_sizes":[],"default_left":[0,0,0,0,0,0,0,0,0],"id":6,"left_children":[1,3,-1,5,-1,-1,7,-1,-1],"loss_changes":[3.5498772E0,4.194509E0,0E0,5.7036314E0,0E0,0E0,6.311261E0,0E0,0E0],"parents":[2147483647,0,0,1,1,3,3,6,6],"right_children":[2,4,-1,6,-1,-1,8,-1,-1],"split_conditions":[1E0,9.934645E-6,3.7695736E-1,4.1928654E0,2.7400348E-1,3.2003176E-1,5.9426904E3,2.8702542E-1,-1.1857182E-1],"split_indices":[4,14,0,1,0,0,2,0,0],"split_type":[0,0,0,0,0,0,0,0,0],"sum_hessian":[3.8215965E1,3.2778667E1,5.437299E0,2.2565557E1,1.0213109E1,4.330067E0,1.823549E1,3.426973E0,1.48085165E1],"tree_param":{"num_deleted":"0","num_feature":"15","num_nodes":"9","size_leaf_vector":"1"}},{"base_weights":[5.056987E-1,3.6978135E-1,3.516488E-1,1.4740136E-1,2.6637447E-1,-4.828447E-2,3.5372803E-1,2.767531E-1,-9.4622314E-2],"categories":[],"categories_nodes":[],"categories_segments":[],"categories_sizes":[],"default_left":[0,0,0,0,0,0,0,0,0],"id":7,"left_children":[1,3,-1,5,-1,7,-1,-1,-1],"loss_changes":[2.666397E0,3.3125181E0,0E0,4.5205173E0,0E0,5.3594017E0,0E0,0E0,0E0],"parents":[2147483647,0,0,1,1,3,3,5,5],"right_children":[2,4,-1,6,-1,8,-1,-1,-1],"split_conditions":[1E0,9.934645E-6,3.516488E-1,1E0,2.6637447E-1,5.9426904E3,3.5372803E-1,2.767531E-1,-9.4622314E-2],"split_indices":[4,14,0,6,0,2,0,0,0],"split_type":[0,0,0,0,0,0,0,0,0],"sum_hessian":[3.3220623E1,2.8884764E1,4.3358603E0,2.110927E1,7.7754936E0,1.854496E1,2.5643106E0,3.4722834E0,1.5072677E1],"tree_param":{"num_deleted":"0","num_feature":"15","num_nodes":"9","size_leaf_vector":"1"}},{"base_weights":[4.4996673E-1,3.4520295E-1,4.0287492E-1,2.913893E-1,1.699949E-1,-2.3972502E-3,3.2538307E-1,-7.841179E-2,2.4377295E-1],"categories":[],"categories_nodes":[],"categories_segments":[],"categories_sizes":[],"default_left":[0,0,0,0,0,0,0,0,0],"id":8,"left_children":[1,3,-1,-1,5,7,-1,-1,-1],"loss_changes":[2.407816E0,2.9960265E0,0E0,0E0,3.7438946E0,4.6367774E0,0E0,0E0,0E0],"parents":[2147483647,0,0,1,1,4,4,5,5],"right_children":[2,4,-1,-1,6,8,-1,-1,-1],"split_conditions":[1E0,4.1928654E0,4.0287492E-1,2.913893E-1,1E0,9.934645E-6,3.2538307E-1,-7.841179E-2,2.4377295E-1],"split_indices":[5,1,0,0,4,14,0,0,0],"split_type":[0,0,0,0,0,0,0,0,0],"sum_hessian":[2.9694088E1,2.7817083E1,1.8770044E0,5.088822E0,2.2728262E1,1.9962912E1,2.7653499E0,1.5664475E1,4.2984357E0],"tree_param":{"num_deleted":"0","num_feature":"15","num_nodes":"9","size_leaf_vector":"1"}},{"base_weights":[4.015591E-1,3.0523148E-1,3.7389863E-1,1.7116521E-1,3.164477E-1,2.6594248E-1,-2.187347E-2,2.3748024E-1,-7.4824765E-2],"categories":[],"categories_nodes":[],"categories_segments":[],"categories_sizes":[],"default_left":[0,0,0,0,0,0,0,0,0],"id":9,"left_children":[1,3,-1,5,-1,-1,7,-1,-1],"loss_changes":[1.9037857E0,2.4847243E0,0E0,3.2907476E0,0E0,0E0,3.8314047E0,0E0,0E0],"parents":[2147483647,0,0,1,1,3,3,6,6],"right_children":[2,4,-1,6,-1,-1,8,-1,-1],"split_conditions":[1E0,1E0,3.7389863E-1,6.0228975E3,3.164477E-1,2.6594248E-1,4.464482E0,2.3748024E-1,-7.4824765E-2],"split_indices":[5,6,0,2,0,0,1,0,0],"split_type":[0,0,0,0,0,0,0,0,0],"sum_hessian":[2.7070217E1,2.5521378E1,1.5488397E0,2.2691336E1,2.830043E0,4.0588713E0,1.8632463E1,3.5307958E0,1.5101667E1],"tree_param":{"num_deleted":"0","num_feature":"15","num_nodes":"9","size_leaf_vector":"1"}},{"base_weights":[3.536375E-1,2.399544E-1,2.9724073E-1,7.409292E-2,2.4291657E-1,-5.354728E-2,3.463482E-1,-6.756538E-2,2.7742386E-1],"categories":[],"categories_nodes":[],"categories_segments":[],"categories_sizes":[],"default_left":[0,0,0,0,0,0,0,0,0],"id":10,"left_children":[1,3,-1,5,-1,7,-1,-1,-1],"loss_changes":[1.667247E0,2.1737695E0,0E0,2.7382867E0,0E0,3.2838986E0,0E0,0E0,0E0],"parents":[2147483647,0,0,1,1,3,3,5,5],"right_children":[2,4,-1,6,-1,8,-1,-1,-1],"split_conditions":[1E0,9.934645E-6,2.9724073E-1,1E0,2.4291657E-1,1E0,3.463482E-1,-6.756538E-2,2.7742386E-1],"split_indices":[4,14,0,5,0,6,0,0,0],"split_type":[0,0,0,0,0,0,0,0,0],"sum_hessian":[2.5299412E1,2.2637094E1,2.6623178E0,1.8408384E1,4.2287097E0,1.7313393E1,1.0949926E0,1.53836565E1,1.9297348E0],"tree_param":{"num_deleted":"0","num_feature":"15","num_nodes":"9","size_leaf_vector":"1"}},{"base_weights":[3.169698E-1,2.5706503E-1,1.9345932E-1,3.4676783E-2,2.3804395E-1,2.3266068E-1,-1.2630224E-1,-8.860098E-2,2.4640843E-1],"categories":[],"categories_nodes":[],"categories_segments":[],"categories_sizes":[],"default_left":[0,0,0,0,0,0,0,0,0],"id":11,"left_children":[1,-1,3,5,-1,-1,7,-1,-1],"loss_changes":[1.4853847E0,0E0,2.0153658E0,2.2448277E0,0E0,0E0,2.7491856E0,0E0,0E0],"parents":[2147483647,0,0,2,2,3,3,6,6],"right_children":[2,-1,4,6,-1,-1,8,-1,-1],"split_conditions":[4.1928654E0,2.5706503E-1,3E0,6.0228975E3,2.3804395E-1,2.3266068E-1,1E0,-8.860098E-2,2.4640843E-1],"split_indices":[1,0,10,2,0,0,6,0,0],"split_type":[0,0,0,0,0,0,0,0,0],"sum_hessian":[2.3760542E1,3.3180935E0,2.0442448E1,1.700123E1,3.4412177E0,2.3532887E0,1.4647942E1,1.3014843E1,1.6330985E0],"tree_param":{"num_deleted":"0","num_feature":"15","num_nodes":"9","size_leaf_vector":"1"}},{"base_weights":[2.9056412E-1,1.8361898E-1,2.755339E-1,8.089397E-2,3.1750897E-1,-7.0625246E-2,2.305235E-1,6.749064E-2,-2.1845396E-1],"categories":[],"categories_nodes":[],"categories_segments":[],"categories_sizes":[],"default_left":[0,0,0,0,0,0,0,0,0],"id":12,"left_children":[1,3,-1,5,-1,7,-1,-1,-1],"loss_changes":[1.3624457E0,1.7773963E0,0E0,2.0998669E0,0E0,3.469337E0,0E0,0E0,0E0],"parents":[2147483647,0,0,1,1,3,3,5,5],"right_children":[2,4,-1,6,-1,8,-1,-1,-1],"split_conditions":[1E0,1E0,2.755339E-1,6.979022E0,3.1750897E-1,5.4481955E0,2.305235E-1,6.749064E-2,-2.1845396E-1],"split_indices":[4,5,0,7,0,7,0,0,0],"split_type":[0,0,0,0,0,0,0,0,0],"sum_hessian":[2.18014E1,1.9732815E1,2.0685844E0,1.8636703E1,1.0961115E0,1.6006395E1,2.630309E0,1.1496281E1,4.510114E0],"tree_param":{"num_deleted":"0","num_feature":"15","num_nodes":"9","size_leaf_vector":"1"}},{"base_weights":[2.4790747E-1,1.2707639E-1,2.2988929E-1,2.2522476E-1,-3.9388845E-3,-1.289126E-1,2.4186857E-1,-8.357542E-2,2.0114344E-1],"categories":[],"categories_nodes":[],"categories_segments":[],"categories_sizes":[],"default_left":[0,0,0,0,0,0,0,0,0],"id":13,"left_children":[1,3,-1,-1,5,7,-1,-1,-1],"loss_changes":[1.2849152E0,1.5632542E0,0E0,0E0,1.8024137E0,2.0287986E0,0E0,0E0,0E0],"parents":[2147483647,0,0,1,1,4,4,5,5],"right_children":[2,4,-1,-1,6,8,-1,-1,-1],"split_conditions":[3E0,6.0228975E3,2.2988929E-1,2.2522476E-1,1E0,6.979022E0,2.4186857E-1,-8.357542E-2,2.0114344E-1],"split_indices":[10,2,0,0,4,7,0,0,0],"split_type":[0,0,0,0,0,0,0,0,0],"sum_hessian":[2.1068098E1,1.8095394E1,2.972703E0,2.320216E0,1.5775179E1,1.4395464E1,1.3797145E0,1.2673983E1,1.7214813E0],"tree_param":{"num_deleted":"0","num_feature":"15","num_nodes":"9","size_leaf_vector":"1"}},{"base_weights":[2.3376141E-1,2.3242274E-1,1.1937554E-1,-1.0891185E-2,2.1035762E-1,-1.39761E-1,2.2366124E-1,-7.916788E-2,2.133739E-1],"categories":[],"categories_nodes":[],"categories_segments":[],"categories_sizes":[],"default_left":[0,0,0,0,0,0,0,0,0],"id":14,"left_children":[1,-1,3,5,-1,7,-1,-1,-1],"loss_changes":[1.1811409E0,0E0,1.3849039E0,1.6475353E0,0E0,1.7056689E0,0E0,0E0,0E0],"parents":[2147483647,0,0,2,2,3,3,5,5],"right_children":[2,-1,4,6,-1,8,-1,-1,-1],"split_conditions":[4.1928654E0,2.3242274E-1,9.934645E-6,1E0,2.1035762E-1,1E0,2.2366124E-1,-7.916788E-2,2.133739E-1],"split_indices":[1,0,14,6,0,4,0,0,0],"split_type":[0,0,0,0,0,0,0,0,0],"sum_hessian":[1.9582003E1,2.4101734E0,1.717183E1,1.4832225E1,2.339604E0,1.3369714E1,1.4625106E0,1.2269877E1,1.0998368E0],"tree_param":{"num_deleted":"0","num_feature":"15","num_nodes":"9","size_leaf_vector":"1"}},{"base_weights":[2.2180147E-1,1.1651917E-1,2.1268108E-1,2.0921917E-1,3.154331E-3,-1.0908955E-1,2.0446947E-1,-7.51899E-2,1.9087438E-1],"categories":[],"categories_nodes":[],"categories_segments":[],"categories_sizes":[],"default_left":[0,0,0,0,0,0,0,0,0],"id":15,"left_children":[1,3,-1,-1,5,7,-1,-1,-1],"loss_changes":[9.1251314E-1,1.1272444E0,0E0,0E0,1.2436186E0,1.6403818E0,0E0,0E0,0E0],"parents":[2147483647,0,0,1,1,4,4,5,5],"right_children":[2,4,-1,-1,6,8,-1,-1,-1],"split_conditions":[3E0,4.1928654E0,2.1268108E-1,2.0921917E-1,1E0,6.979022E0,2.0446947E-1,-7.51899E-2,1.9087438E-1],"split_indices":[10,1,0,0,6,7,0,0,0],"split_type":[0,0,0,0,0,0,0,0,0],"sum_hessian":[1.8403025E1,1.6151474E1,2.2515504E0,1.7961679E0,1.4355306E1,1.3037442E1,1.3178632E0,1.151451E1,1.5229328E0],"tree_param":{"num_deleted":"0","num_feature":"15","num_nodes":"9","size_leaf_vector":"1"}},{"base_weights":[2.1233678E-1,2.1343702E-1,1.0657286E-1,-5.1930714E-3,1.9310449E-1,3.8499796E-1,-1.9466183E-1,-2.9886248E-2,1.6240194E-1,-1.588619E-1,8.922687E-2],"categories":[],"categories_nodes":[],"categories_segments":[],"categories_sizes":[],"default_left":[0,0,0,0,0,0,0,0,0,0,0],"id":16,"left_children":[1,-1,3,5,-1,7,9,-1,-1,-1,-1],"loss_changes":[8.8688093E-1,0E0,9.772963E-1,1.1411301E0,0E0,4.3652844E-1,1.8666819E0,0E0,0E0,0E0,0E0],"parents":[2147483647,0,0,2,2,3,3,5,5,6,6],"right_children":[2,-1,4,6,-1,8,10,-1,-1,-1,-1],"split_conditions":[6.0228975E3,2.1343702E-1,9.934645E-6,1.2769916E1,1.9310449E-1,2.7813807E0,2.5157667E1,-2.9886248E-2,1.6240194E-1,-1.588619E-1,8.922687E-2],"split_indices":[2,0,14,0,0,0,0,0,0,0,0],"split_type":[0,0,0,0,0,0,0,0,0,0,0],"sum_hessian":[1.723685E1,2.0125253E0,1.5224325E1,1.342175E1,1.802575E0,4.0497427E0,9.372007E0,1.0762988E0,2.9734437E0,5.5315285E0,3.840479E0],"tree_param":{"num_deleted":"0","num_feature":"15","num_nodes":"11","size_leaf_vector":"1"}},{"base_weights":[1.8894182E-1,1.9730985E-1,9.660758E-2,-6.3991565E-3,1.8694438E-1,-1.12729035E-1,2.0099905E-1,-8.24492E-2,1.3359989E-1],"categories":[],"categories_nodes":[],"categories_segments":[],"categories_sizes":[],"default_left":[0,0,0,0,0,0,0,0,0],"id":17,"left_children":[1,-1,3,5,-1,7,-1,-1,-1],"loss_changes":[6.823616E-1,0E0,8.484379E-1,1.0832803E0,0E0,1.2951894E0,0E0,0E0,0E0],"parents":[2147483647,0,0,2,2,3,3,5,5],"right_children":[2,-1,4,6,-1,8,-1,-1,-1],"split_conditions":[6.0228975E3,1.9730985E-1,3E0,1E0,1.8694438E-1,9.133285E1,2.0099905E-1,-8.24492E-2,1.3359989E-1],"split_indices":[2,0,10,4,0,3,0,0,0],"split_type":[0,0,0,0,0,0,0,0,0],"sum_hessian":[1.6233349E1,1.6637714E0,1.4569577E1,1.3011912E1,1.557665E0,1.1964435E1,1.0474781E0,9.664648E0,2.2997866E0],"tree_param":{"num_deleted":"0","num_feature":"15","num_nodes":"9","size_leaf_vector":"1"}},{"base_weights":[1.793525E-1,7.702531E-2,1.7186517E-1,4.1075006E-1,-1.2361452E-1,7.591936E-4,5.218801E-1,1.7082925E-1,-4.4905546E-1,3.9421536E-2,2.1979311E-1,1.8117729E-1,-7.8761704E-2,-2.1579422E-1,6.3737355E-2],"categories":[],"categories_nodes":[],"categories_segments":[],"categories_sizes":[],"default_left":[0,0,0,0,0,0,0,0,0,0,0,0,0,0,0],"id":18,"left_children":[1,3,-1,5,7,-1,9,11,13,-1,-1,-1,-1,-1,-1],"loss_changes":[6.254167E-1,1.0116928E0,0E0,2.5362116E-1,1.0091968E0,0E0,2.6685464E-1,1.2534096E0,1.0284667E0,0E0,0E0,0E0,0E0,0E0,0E0],"parents":[2147483647,0,0,1,1,3,3,4,4,6,6,7,7,8,8],"right_children":[2,4,-1,6,8,-1,10,12,14,-1,-1,-1,-1,-1,-1],"split_conditions":[3.1339342E1,1.2769916E1,1.7186517E-1,2.7813807E0,5.4481955E0,7.591936E-4,3.7321105E0,1.0447454E4,6.8645864E0,3.9421536E-2,2.1979311E-1,1.8117729E-1,-7.8761704E-2,-2.1579422E-1,6.3737355E-2],"split_indices":[0,0,0,0,7,0,7,2,7,0,0,0,0,0,0],"split_type":[0,0,0,0,0,0,0,0,0,0,0,0,0,0,0],"sum_hessian":[1.5626783E1,1.3350956E1,2.2758272E0,4.619736E0,8.73122E0,1.2073797E0,3.4123564E0,4.833331E0,3.8978887E0,1.7653047E0,1.6470516E0,2.220586E0,2.6127453E0,2.7052808E0,1.192608E0],"tree_param":{"num_deleted":"0","num_feature":"15","num_nodes":"15","size_leaf_vector":"1"}},{"base_weights":[1.5871775E-1,6.9290265E-2,1.8143779E-1,-1.803756E-2,1.7929259E-1,1.7132047E-1,-1.196141E-1,-7.1637824E-2,1.6634451E-1],"categories":[],"categories_nodes":[],"categories_segments":[],"categories_sizes":[],"default_left":[0,0,0,0,0,0,0,0,0],"id":19,"left_children":[1,3,-1,5,-1,-1,7,-1,-1],"loss_changes":[5.928525E-1,6.7446834E-1,0E0,8.6505216E-1,0E0,0E0,1.1111931E0,0E0,0E0],"parents":[2147483647,0,0,1,1,3,3,6,6],"right_children":[2,4,-1,6,-1,-1,8,-1,-1],"split_conditions":[9.934645E-6,1E0,1.8143779E-1,4.1928654E0,1.7929259E-1,1.7132047E-1,6.979022E0,-7.1637824E-2,1.6634451E-1],"split_indices":[14,6,0,1,0,0,7,0,0],"split_type":[0,0,0,0,0,0,0,0,0],"sum_hessian":[1.49121895E1,1.3384289E1,1.5279012E0,1.2314728E1,1.0695609E0,1.1313388E0,1.1183389E1,1.005198E1,1.1314094E0],"tree_param":{"num_deleted":"0","num_feature":"15","num_nodes":"9","size_leaf_vector":"1"}},{"base_weights":[1.6222504E-1,7.958987E-2,1.932203E-1,-1.7265148E-2,1.7721067E-1,1.6690695E-1,-1.20889135E-1,7.36693E-2,-9.206079E-2],"categories":[],"categories_nodes":[],"categories_segments":[],"categories_sizes":[],"default_left":[0,0,0,0,0,0,0,0,0],"id":20,"left_children":[1,3,-1,5,-1,-1,7,-1,-1],"loss_changes":[5.5142045E-1,7.062919E-1,0E0,8.276794E-1,0E0,0E0,8.698149E-1,0E0,0E0],"parents":[2147483647,0,0,1,1,3,3,6,6],"right_children":[2,4,-1,6,-1,-1,8,-1,-1],"split_conditions":[1E0,3.3046455E1,1.932203E-1,6.0228975E3,1.7721067E-1,1.6690695E-1,1.2769916E1,7.36693E-2,-9.206079E-2],"split_indices":[4,0,0,2,0,0,0,0,0],"split_type":[0,0,0,0,0,0,0,0,0],"sum_hessian":[1.413624E1,1.306141E1,1.0748305E0,1.1792894E1,1.2685152E0,1.135916E0,1.0656979E1,3.4798794E0,7.1770988E0],"tree_param":{"num_deleted":"0","num_feature":"15","num_nodes":"9","size_leaf_vector":"1"}},{"base_weights":[1.5655924E-1,7.2706334E-2,1.7274782E-1,1.6424519E-1,-1.3791084E-2,-1.2815884E-1,3.6388332E-1,-7.60136E-2,1.3430461E-1,2.0303702E-1,-3.7650667E-2],"categories":[],"categories_nodes":[],"categories_segments":[],"categories_sizes":[],"default_left":[0,0,0,0,0,0,0,0,0,0,0],"id":21,"left_children":[1,3,-1,-1,5,7,9,-1,-1,-1,-1],"loss_changes":[4.7030482E-1,5.531138E-1,0E0,0E0,5.7415366E-1,8.4269774E-1,5.595182E-1,0E0,0E0,0E0,0E0],"parents":[2147483647,0,0,1,1,4,4,5,5,6,6],"right_children":[2,4,-1,-1,6,8,10,-1,-1,-1,-1],"split_conditions":[3E0,4.1928654E0,1.7274782E-1,1.6424519E-1,9.133285E1,3.1339342E1,1.1681081E4,-7.60136E-2,1.3430461E-1,2.0303702E-1,-3.7650667E-2],"split_indices":[10,1,0,0,3,0,2,0,0,0,0],"split_type":[0,0,0,0,0,0,0,0,0,0,0],"sum_hessian":[1.3568218E1,1.2284703E1,1.2835144E0,1.0718608E0,1.1212843E1,9.113689E0,2.0991535E0,7.9458127E0,1.1678765E0,1.046864E0,1.0522896E0],"tree_param":{"num_deleted":"0","num_feature":"15","num_nodes":"11","size_leaf_vector":"1"}},{"base_weights":[1.5581673E-1,-1.29664E-1,2.6244935E-1,-3.9519414E-1,8.603074E-2,-4.3066382E-2,3.4010887E-1,6.181864E-3,-1.9029583E-1,-1.7266596E-2,4.014159E-1,6.686906E-2,1.9648828E-1],"categories":[],"categories_nodes":[],"categories_segments":[],"categories_sizes":[],"default_left":[0,0,0,0,0,0,0,0,0,0,0,0,0],"id":22,"left_children":[1,3,5,7,-1,-1,9,-1,-1,-1,11,-1,-1],"loss_changes":[4.6290252E-1,6.109814E-1,3.8265884E-1,3.281318E-1,0E0,0E0,2.4702036E-1,0E0,0E0,0E0,2.1987605E-1,0E0,0E0],"parents":[2147483647,0,0,1,1,2,2,3,3,6,6,10,10],"right_children":[2,4,6,8,-1,-1,10,-1,-1,-1,12,-1,-1],"split_conditions":[2.6448703E-1,2.1091192E1,1.5306792E-1,5.872787E0,8.603074E-2,-4.3066382E-2,9.8250073E-1,6.181864E-3,-1.9029583E-1,-1.7266596E-2,8.579322E1,6.686906E-2,1.9648828E-1],"split_indices":[11,0,12,7,0,0,7,0,0,0,3,0,0],"split_type":[0,0,0,0,0,0,0,0,0,0,0,0,0],"sum_hessian":[1.308838E1,3.500561E0,9.587818E0,2.1687217E0,1.3318392E0,1.4032286E0,8.184589E0,1.1254946E0,1.0432271E0,1.10143E0,7.08316E0,5.259269E0,1.8238903E0],"tree_param":{"num_deleted":"0","num_feature":"15","num_nodes":"13","size_leaf_vector":"1"}},{"base_weights":[1.1968407E-1,3.8060553E-2,1.6491821E-1,1.9311637E-1,-3.7715766E-1,-1.21800594E-1,2.9592034E-1,4.7780257E-3,-1.7431836E-1,-8.698893E-2,3.075416E-2,1.6745722E-1,1.0856086E-2],"categories":[],"categories_nodes":[],"categories_segments":[],"categories_sizes":[],"default_left":[0,0,0,0,0,0,0,0,0,0,0,0,0],"id":23,"left_children":[1,3,-1,5,7,9,11,-1,-1,-1,-1,-1,-1],"loss_changes":[4.637645E-1,8.891836E-1,0E0,3.5634354E-1,3.1272542E-1,1.4829387E-1,5.077507E-1,0E0,0E0,0E0,0E0,0E0,0E0],"parents":[2147483647,0,0,1,1,3,3,4,4,5,5,6,6],"right_children":[2,4,-1,6,8,10,12,-1,-1,-1,-1,-1,-1],"split_conditions":[6.979022E0,5.8050423E0,1.6491821E-1,2E0,8.795457E0,1.0644261E4,1.0447454E4,4.7780257E-3,-1.7431836E-1,-8.698893E-2,3.075416E-2,1.6745722E-1,1.0856086E-2],"split_indices":[7,7,0,9,1,2,2,0,0,0,0,0,0],"split_type":[0,0,0,0,0,0,0,0,0,0,0,0,0],"sum_hessian":[1.2808108E1,1.1679759E1,1.1283497E0,8.893532E0,2.786227E0,2.1432822E0,6.75025E0,1.2665218E0,1.5197052E0,1.0576941E0,1.0855882E0,2.7869687E0,3.9632812E0],"tree_param":{"num_deleted":"0","num_feature":"15","num_nodes":"13","size_leaf_vector":"1"}},{"base_weights":[9.625104E-2,1.6572658E-2,1.5681836E-1,-1.4967394E-1,2.0449717E-1,9.709627E-2,-3.3994794E-1,2.0125918E-1,-3.3706944E-2,2.223075E-2,-1.344351E-1,-1.0473933E-1,6.59133E-2],"categories":[],"categories_nodes":[],"categories_segments":[],"categories_sizes":[],"default_left":[0,0,0,0,0,0,0,0,0,0,0,0,0],"id":24,"left_children":[1,3,-1,5,7,-1,9,-1,11,-1,-1,-1,-1],"loss_changes":[4.5040324E-1,4.184936E-1,0E0,7.553344E-1,7.169769E-1,0E0,2.8394556E-1,0E0,4.8352662E-1,0E0,0E0,0E0,0E0],"parents":[2147483647,0,0,1,1,3,3,4,4,6,6,8,8],"right_children":[2,4,-1,6,8,-1,10,-1,12,-1,-1,-1,-1],"split_conditions":[9.934645E-6,5.855058E-1,1.5681836E-1,3.7E1,8.238403E3,9.709627E-2,5.7169065E0,2.0125918E-1,3.1E1,2.223075E-2,-1.344351E-1,-1.0473933E-1,6.59133E-2],"split_indices":[14,11,0,13,2,0,1,0,13,0,0,0,0],"split_type":[0,0,0,0,0,0,0,0,0,0,0,0,0],"sum_hessian":[1.2509504E1,1.1415595E1,1.0939088E0,6.165158E0,5.2504377E0,1.5667351E0,4.5984225E0,1.1610132E0,4.0894246E0,1.0177207E0,3.5807018E0,1.6535703E0,2.4358542E0],"tree_param":{"num_deleted":"0","num_feature":"15","num_nodes":"13","size_leaf_vector":"1"}},{"base_weights":[9.4641164E-2,2.2941481E-2,1.22507825E-1,-1.19128264E-1,1.9300696E-1,8.0190666E-2,-2.7752134E-1,1.8048824E-1,-2.6207108E-2,-1.2410963E-1,1.197571E-2,5.6476586E-2,-1.14321984E-1],"categories":[],"categories_nodes":[],"categories_segments":[],"categories_sizes":[],"default_left":[0,0,0,0,0,0,0,0,0,0,0,0,0],"id":25,"left_children":[1,3,-1,5,7,-1,9,-1,11,-1,-1,-1,-1],"loss_changes":[2.8408456E-1,3.051626E-1,0E0,5.0149965E-1,5.261002E-1,0E0,2.5177836E-1,0E0,4.2686704E-1,0E0,0E0,0E0,0E0],"parents":[2147483647,0,0,1,1,3,3,4,4,6,6,8,8],"right_children":[2,4,-1,6,8,-1,10,-1,12,-1,-1,-1,-1],"split_conditions":[9.692115E-6,5.855058E-1,1.22507825E-1,3.7E1,8.238403E3,8.0190666E-2,2.0124115E1,1.8048824E-1,6.3145924E-1,-1.2410963E-1,1.197571E-2,5.6476586E-2,-1.14321984E-1],"split_indices":[14,11,0,13,2,0,0,0,12,0,0,0,0],"split_type":[0,0,0,0,0,0,0,0,0,0,0,0,0],"sum_hessian":[1.2046122E1,1.0678661E1,1.3674595E0,5.9814105E0,4.697251E0,1.5390394E0,4.4423714E0,1.0309885E0,3.6662626E0,2.8965566E0,1.5458149E0,2.5778496E0,1.088413E0],"tree_param":{"num_deleted":"0","num_feature":"15","num_nodes":"13","size_leaf_vector":"1"}},{"base_weights":[8.57615E-2,1.0654648E-1,9.072867E-3,-1.9689666E-1,1.6300617E-1,-1.069742E-1,1.483202E-2,4.4854838E-1,-6.926556E-2,-6.0286682E-2,6.3707165E-2,1.7205948E-1,2.9304236E-2,-1.1136987E-1,6.554748E-2],"categories":[],"categories_nodes":[],"categories_segments":[],"categories_sizes":[],"default_left":[0,0,0,0,0,0,0,0,0,0,0,0,0,0,0],"id":26,"left_children":[1,-1,3,5,7,-1,9,11,13,-1,-1,-1,-1,-1,-1],"loss_changes":[2.5902846E-1,0E0,3.7791905E-1,1.7832932E-1,4.8135632E-1,0E0,1.7738657E-1,8.3391905E-2,4.8169747E-1,0E0,0E0,0E0,0E0,0E0,0E0],"parents":[2147483647,0,0,2,2,3,3,4,4,6,6,7,7,8,8],"right_children":[2,-1,4,6,8,-1,10,12,14,-1,-1,-1,-1,-1,-1],"split_conditions":[4.0706535E1,1.0654648E-1,7.183194E1,4.8116216E-1,4.0527652E-6,-1.069742E-1,4.0310926E0,1.1880896E4,6.527876E-6,-6.0286682E-2,6.3707165E-2,1.7205948E-1,2.9304236E-2,-1.1136987E-1,6.554748E-2],"split_indices":[3,0,3,12,14,0,7,2,14,0,0,0,0,0,0],"split_type":[0,0,0,0,0,0,0,0,0,0,0,0,0,0,0],"sum_hessian":[1.1694008E1,1.7866608E0,9.907347E0,4.1180763E0,5.789271E0,1.9575609E0,2.1605155E0,2.1791754E0,3.6100955E0,1.0242262E0,1.1362892E0,1.1388823E0,1.040293E0,1.6200023E0,1.9900931E0],"tree_param":{"num_deleted":"0","num_feature":"15","num_nodes":"15","size_leaf_vector":"1"}},{"base_weights":[7.504151E-2,1.11599125E-1,1.4830823E-2,-1.5334605E-1,1.5186195E-1,-3.46432E-1,7.6951355E-2,-5.4907985E-2,3.2358277E-1,-4.6167206E-3,-1.4655378E-1,1.3025522E-1,-1.3641244E-2],"categories":[],"categories_nodes":[],"categories_segments":[],"categories_sizes":[],"default_left":[0,0,0,0,0,0,0,0,0,0,0,0,0],"id":27,"left_children":[1,-1,3,5,7,9,-1,-1,11,-1,-1,-1,-1],"loss_changes":[2.161912E-1,0E0,2.848772E-1,5.3154325E-1,4.4780815E-1,1.9134182E-1,0E0,0E0,2.1681088E-1,0E0,0E0,0E0,0E0],"parents":[2147483647,0,0,2,2,3,3,4,4,5,5,8,8],"right_children":[2,-1,4,6,8,10,-1,-1,12,-1,-1,-1,-1],"split_conditions":[4.464482E0,1.11599125E-1,8.843381E0,5.908596E0,5.7501236E1,1.2208936E4,7.6951355E-2,-5.4907985E-2,2.610388E1,-4.6167206E-3,-1.4655378E-1,1.3025522E-1,-1.3641244E-2],"split_indices":[1,0,1,7,3,2,0,0,0,0,0,0,0],"split_type":[0,0,0,0,0,0,0,0,0,0,0,0,0],"sum_hessian":[1.139986E1,1.0488311E0,1.0351029E1,4.5939107E0,5.7571187E0,3.2279274E0,1.365983E0,1.9291223E0,3.8279965E0,1.3021874E0,1.9257401E0,2.8095315E0,1.018465E0],"tree_param":{"num_deleted":"0","num_feature":"15","num_nodes":"13","size_leaf_vector":"1"}},{"base_weights":[6.2344987E-2,-3.1426884E-3,1.0675437E-1,-7.550797E-2,7.6366864E-2,1.6065162E-1,-2.6381138E-1,9.9243335E-2,-2.5501197E-2,-1.5002361E-1,4.7532625E-2],"categories":[],"categories_nodes":[],"categories_segments":[],"categories_sizes":[],"default_left":[0,0,0,0,0,0,0,0,0,0,0],"id":28,"left_children":[1,3,-1,5,-1,7,9,-1,-1,-1,-1],"loss_changes":[2.3339455E-1,2.2195515E-1,0E0,4.541304E-1,0E0,2.2579989E-1,6.309311E-1,0E0,0E0,0E0,0E0],"parents":[2147483647,0,0,1,1,3,3,5,5,6,6],"right_children":[2,4,-1,6,-1,8,10,-1,-1,-1,-1],"split_conditions":[9.692115E-6,8.504519E-1,1.0675437E-1,4.0527652E-6,7.6366864E-2,1.2384599E4,2E0,9.9243335E-2,-2.5501197E-2,-1.5002361E-1,4.7532625E-2],"split_indices":[14,11,0,14,0,2,10,0,0,0,0],"split_type":[0,0,0,0,0,0,0,0,0,0,0],"sum_hessian":[1.1084615E1,9.871365E0,1.2132503E0,8.259093E0,1.6122715E0,3.7291052E0,4.529988E0,1.9982923E0,1.7308129E0,2.7865148E0,1.743473E0],"tree_param":{"num_deleted":"0","num_feature":"15","num_nodes":"11","size_leaf_vector":"1"}},{"base_weights":[5.7905957E-2,-6.7456136E-3,9.7823456E-2,1.8644893E-1,-1.1149499E-1,-1.000047E-2,1.1149333E-1,-2.3370874E-1,5.579519E-2,9.41348E-4,-1.17645316E-1],"categories":[],"categories_nodes":[],"categories_segments":[],"categories_sizes":[],"default_left":[0,0,0,0,0,0,0,0,0,0,0],"id":29,"left_children":[1,3,-1,5,7,-1,-1,9,-1,-1,-1],"loss_changes":[2.0625895E-1,2.3253019E-1,0E0,1.7734867E-1,3.1287643E-1,0E0,0E0,2.149666E-1,0E0,0E0,0E0],"parents":[2147483647,0,0,1,1,3,3,4,4,7,7],"right_children":[2,4,-1,6,8,-1,-1,10,-1,-1,-1],"split_conditions":[3.1339342E1,1.2769916E1,9.7823456E-2,3.7321105E0,7.989178E-1,-1.000047E-2,1.1149333E-1,8.257595E0,5.579519E-2,9.41348E-4,-1.17645316E-1],"split_indices":[0,0,0,7,12,0,0,1,0,0,0],"split_type":[0,0,0,0,0,0,0,0,0,0,0],"sum_hessian":[1.0769653E1,9.463111E0,1.3065425E0,3.052774E0,6.410337E0,1.7710054E0,1.2817686E0,4.6956034E0,1.7147336E0,2.2750113E0,2.4205923E0],"tree_param":{"num_deleted":"0","num_feature":"15","num_nodes":"11","size_leaf_vector":"1"}},{"base_weights":[5.35637E-2,8.958397E-2,-1.4861296E-2,-1.6878267E-1,1.0358993E-1,-9.138222E-2,8.505982E-3,9.723399E-2,-6.9169104E-2,-8.923024E-2,4.7766015E-2],"categories":[],"categories_nodes":[],"categories_segments":[],"categories_sizes":[],"default_left":[0,0,0,0,0,0,0,0,0,0,0],"id":30,"left_children":[1,-1,3,5,7,-1,-1,-1,9,-1,-1],"loss_changes":[1.9865662E-1,0E0,1.9993895E-1,1.3535012E-1,2.6147723E-1,0E0,0E0,0E0,2.7375323E-1,0E0,0E0],"parents":[2147483647,0,0,2,2,3,3,4,4,8,8],"right_children":[2,-1,4,6,8,-1,-1,-1,10,-1,-1],"split_conditions":[4.0706535E1,8.958397E-2,7.183194E1,5.50097E-6,4.0527652E-6,-9.138222E-2,8.505982E-3,9.723399E-2,6.527876E-6,-8.923024E-2,4.7766015E-2],"split_indices":[3,0,3,14,14,0,0,0,14,0,0],"split_type":[0,0,0,0,0,0,0,0,0,0,0],"sum_hessian":[1.0583043E1,1.5757467E0,9.007297E0,3.732365E0,5.274932E0,1.8870451E0,1.8453199E0,1.9322958E0,3.3426359E0,1.5205747E0,1.8220612E0],"tree_param":{"num_deleted":"0","num_feature":"15","num_nodes":"11","size_leaf_vector":"1"}},{"base_weights":[4.381414E-2,-1.456822E-2,9.209637E-2,-1.244278E-1,2.0723198E-1,1.0838763E-1,-2.742598E-1,1.360431E-1,-5.6872703E-2,-3.1739175E-2,9.1307245E-2,2.3890903E-2,-1.1754541E-1],"categories":[],"categories_nodes":[],"categories_segments":[],"categories_sizes":[],"default_left":[0,0,0,0,0,0,0,0,0,0,0,0,0],"id":31,"left_children":[1,3,-1,5,7,9,11,-1,-1,-1,-1,-1,-1],"loss_changes":[1.7979556E-1,2.7661106E-1,0E0,2.916587E-1,4.5579547E-1,1.8569636E-1,2.3305771E-1,0E0,0E0,0E0,0E0,0E0,0E0],"parents":[2147483647,0,0,1,1,3,3,4,4,5,5,6,6],"right_children":[2,4,-1,6,8,10,12,-1,-1,-1,-1,-1,-1],"split_conditions":[6.948109E0,2.5157667E1,9.209637E-2,1.2769916E1,4E0,9.998884E0,3.9E1,1.360431E-1,-5.6872703E-2,-3.1739175E-2,9.1307245E-2,2.3890903E-2,-1.1754541E-1],"split_indices":[7,0,0,0,8,1,13,0,0,0,0,0,0],"split_type":[0,0,0,0,0,0,0,0,0,0,0,0,0],"sum_hessian":[1.0410781E1,9.293712E0,1.1170692E0,6.5088377E0,2.7848744E0,2.656954E0,3.8518836E0,1.6303335E0,1.154541E0,1.4893293E0,1.1676246E0,1.0409117E0,2.810972E0],"tree_param":{"num_deleted":"0","num_feature":"15","num_nodes":"13","size_leaf_vector":"1"}},{"base_weights":[4.448808E-2,-1.0785182E-2,8.72705E-2,-7.3620945E-2,6.455822E-2,-2.0755035E-1,1.1358449E-1,3.1675387E-2,-1.2951407E-1,-2.1522688E-2,9.887182E-2],"categories":[],"categories_nodes":[],"categories_segments":[],"categories_sizes":[],"default_left":[0,0,0,0,0,0,0,0,0,0,0],"id":32,"left_children":[1,3,-1,5,-1,7,9,-1,-1,-1,-1],"loss_changes":[1.5430102E-1,1.5825626E-1,0E0,2.3900753E-1,0E0,4.2200637E-1,1.9295624E-1,0E0,0E0,0E0,0E0],"parents":[2147483647,0,0,1,1,3,3,5,5,6,6],"right_children":[2,4,-1,6,-1,8,10,-1,-1,-1,-1],"split_conditions":[9.692115E-6,8.504519E-1,8.72705E-2,2E0,6.455822E-2,5.192446E-6,5.188151E-1,3.1675387E-2,-1.2951407E-1,-2.1522688E-2,9.887182E-2],"split_indices":[14,11,0,10,0,14,11,0,0,0,0],"split_type":[0,0,0,0,0,0,0,0,0,0,0],"sum_hessian":[1.0098581E1,9.029416E0,1.0691655E0,7.5924687E0,1.4369473E0,4.3626738E0,3.229795E0,2.0408213E0,2.3218524E0,2.0977128E0,1.1320821E0],"tree_param":{"num_deleted":"0","num_feature":"15","num_nodes":"11","size_leaf_vector":"1"}},{"base_weights":[4.3820806E-2,-8.873613E-3,8.34766E-2,1.1153658E-1,-1.2868953E-1,-1.3530445E-1,3.2568863E-1,-2.986341E-1,5.4289512E-2,3.6223203E-2,-9.926598E-2,-2.088474E-2,1.7329562E-1,-2.3737868E-2,-1.2564783E-1],"categories":[],"categories_nodes":[],"categories_segments":[],"categories_sizes":[],"default_left":[0,0,0,0,0,0,0,0,0,0,0,0,0,0,0],"id":33,"left_children":[1,3,-1,5,7,9,11,13,-1,-1,-1,-1,-1,-1,-1],"loss_changes":[1.3679734E-1,1.564213E-1,0E0,3.3201313E-1,3.3821958E-1,2.0205429E-1,3.5995927E-1,6.8802476E-2,0E0,0E0,0E0,0E0,0E0,0E0,0E0],"parents":[2147483647,0,0,1,1,3,3,4,4,5,5,6,6,7,7],"right_children":[2,4,-1,6,8,10,12,14,-1,-1,-1,-1,-1,-1,-1],"split_conditions":[6.948109E0,1.2384599E4,8.34766E-2,3.7321105E0,1.0087129E1,1.9706591E0,1.6979313E1,5.5577534E-1,5.4289512E-2,3.6223203E-2,-9.926598E-2,-2.088474E-2,1.7329562E-1,-2.3737868E-2,-1.2564783E-1],"split_indices":[7,2,0,7,1,7,0,12,0,0,0,0,0,0,0],"split_type":[0,0,0,0,0,0,0,0,0,0,0,0,0,0,0],"sum_hessian":[9.873793E0,8.84731E0,1.0264827E0,4.447177E0,4.4001336E0,2.2369525E0,2.2102242E0,2.8639374E0,1.5361964E0,1.1344361E0,1.1025164E0,1.142098E0,1.0681263E0,1.6000608E0,1.2638766E0],"tree_param":{"num_deleted":"0","num_feature":"15","num_nodes":"15","size_leaf_vector":"1"}},{"base_weights":[3.979989E-2,7.121602E-2,-1.5556967E-2,1.303264E-1,-1.04131825E-1,-5.1940303E-2,1.01576716E-1,4.974096E-2,-2.4306463E-1,1.3204931E-2,-1.0196569E-1],"categories":[],"categories_nodes":[],"categories_segments":[],"categories_sizes":[],"default_left":[0,0,0,0,0,0,0,0,0,0,0],"id":34,"left_children":[1,-1,3,5,7,-1,-1,-1,9,-1,-1],"loss_changes":[1.1896512E-1,0E0,1.3207437E-1,3.0565476E-1,2.7514952E-1,0E0,0E0,0E0,1.4114651E-1,0E0,0E0],"parents":[2147483647,0,0,2,2,3,3,4,4,8,8],"right_children":[2,-1,4,6,8,-1,-1,-1,10,-1,-1],"split_conditions":[4.0706535E1,7.121602E-2,4.1242826E-1,1.8429106E-1,3.7E1,-5.1940303E-2,1.01576716E-1,4.974096E-2,1.2769916E1,1.3204931E-2,-1.0196569E-1],"split_indices":[3,0,12,12,13,0,0,0,0,0,0],"split_type":[0,0,0,0,0,0,0,0,0,0,0],"sum_hessian":[9.538888E0,1.3679451E0,8.170943E0,2.908785E0,5.2621584E0,1.2524726E0,1.6563125E0,1.7223561E0,3.539802E0,1.0302932E0,2.5095088E0],"tree_param":{"num_deleted":"0","num_feature":"15","num_nodes":"11","size_leaf_vector":"1"}},{"base_weights":[3.6466245E-2,-1.6965754E-2,7.7603176E-2,5.770504E-2,-8.332924E-2,2.4223047E-1,-6.5948784E-2,4.451059E-3,1.0643076E-1,4.901516E-2,-6.389882E-2],"categories":[],"categories_nodes":[],"categories_segments":[],"categories_sizes":[],"default_left":[0,0,0,0,0,0,0,0,0,0,0],"id":35,"left_children":[1,3,-1,5,-1,7,9,-1,-1,-1,-1],"loss_changes":[1.2739034E-1,1.9694038E-1,0E0,1.9965602E-1,0E0,8.287071E-2,2.2385249E-1,0E0,0E0,0E0,0E0],"parents":[2147483647,0,0,1,1,3,3,5,5,6,6],"right_children":[2,4,-1,6,-1,8,10,-1,-1,-1,-1],"split_conditions":[3.1339342E1,2.624086E1,7.7603176E-2,3.7E1,-8.332924E-2,5.471451E-1,1.2769916E1,4.451059E-3,1.0643076E-1,4.901516E-2,-6.389882E-2],"split_indices":[0,0,0,13,0,12,0,0,0,0,0],"split_type":[0,0,0,0,0,0,0,0,0,0,0],"sum_hessian":[9.359625E0,8.289914E0,1.0697106E0,7.050095E0,1.2398194E0,2.4440145E0,4.6060805E0,1.1838293E0,1.2601851E0,1.7561377E0,2.849943E0],"tree_param":{"num_deleted":"0","num_feature":"15","num_nodes":"11","size_leaf_vector":"1"}},{"base_weights":[3.5091072E-2,1.5626949E-1,-5.372864E-2,9.814973E-2,-1.7159194E-2,-2.1018901E-1,1.14714235E-1,3.5510372E-2,-4.4441562E-2,5.595483E-2,-1.2608276E-1,9.1166675E-2,-3.8683124E-2],"categories":[],"categories_nodes":[],"categories_segments":[],"categories_sizes":[],"default_left":[0,0,0,0,0,0,0,0,0,0,0,0,0],"id":36,"left_children":[1,3,5,-1,7,9,11,-1,-1,-1,-1,-1,-1],"loss_changes":[1.18323445E-1,1.4122888E-1,1.9904712E-1,0E0,7.4714676E-2,3.946187E-1,2.16342E-1,0E0,0E0,0E0,0E0,0E0,0E0],"parents":[2147483647,0,0,1,1,2,2,4,4,5,5,6,6],"right_children":[2,4,6,-1,8,10,12,-1,-1,-1,-1,-1,-1],"split_conditions":[8.045086E0,6.1567802E1,3E0,9.814973E-2,6.1985534E-1,3.0983539E0,6.2114573E-6,3.5510372E-2,-4.4441562E-2,5.595483E-2,-1.2608276E-1,9.1166675E-2,-3.8683124E-2],"split_indices":[1,3,9,0,12,7,14,0,0,0,0,0,0],"split_type":[0,0,0,0,0,0,0,0,0,0,0,0,0],"sum_hessian":[9.213413E0,3.5756645E0,5.6377482E0,1.354493E0,2.2211716E0,2.7943468E0,2.8434014E0,1.1389557E0,1.0822158E0,1.006319E0,1.7880278E0,1.4615037E0,1.3818977E0],"tree_param":{"num_deleted":"0","num_feature":"15","num_nodes":"13","size_leaf_vector":"1"}},{"base_weights":[3.235462E-2,-1.6874118E-2,7.133454E-2,5.780265E-2,-8.417618E-2,-1.1035834E-1,2.0140536E-2,7.412682E-2,-2.2635348E-2],"categories":[],"categories_nodes":[],"categories_segments":[],"categories_sizes":[],"default_left":[0,0,0,0,0,0,0,0,0],"id":37,"left_children":[1,3,-1,-1,5,-1,7,-1,-1],"loss_changes":[1.0524843E-1,1.4327534E-1,0E0,0E0,2.2980006E-1,0E0,1.5841198E-1,0E0,0E0],"parents":[2147483647,0,0,1,1,4,4,6,6],"right_children":[2,4,-1,-1,6,-1,8,-1,-1],"split_conditions":[3.1339342E1,7.6742954E3,7.133454E-2,5.780265E-2,9.193493E3,-1.1035834E-1,1.1681081E4,7.412682E-2,-2.2635348E-2],"split_indices":[0,2,0,0,2,0,2,0,0],"split_type":[0,0,0,0,0,0,0,0,0],"sum_hessian":[9.010568E0,8.009115E0,1.0014526E0,1.4941452E0,6.5149703E0,1.072356E0,5.4426146E0,1.1433324E0,4.299282E0],"tree_param":{"num_deleted":"0","num_feature":"15","num_nodes":"9","size_leaf_vector":"1"}},{"base_weights":[3.0140422E-2,-4.907028E-2,7.362235E-2,-1.2519525E-3,8.758954E-2,-1.1246329E-1,1.6378406E-1,1.6818784E-2,-1.1312463E-1,-3.2193664E-2,9.6587315E-2],"categories":[],"categories_nodes":[],"categories_segments":[],"categories_sizes":[],"default_left":[0,0,0,0,0,0,0,0,0,0,0],"id":38,"left_children":[1,-1,3,5,-1,7,9,-1,-1,-1,-1],"loss_changes":[9.525609E-2,0E0,1.4354467E-1,1.5639283E-1,0E0,2.4785882E-1,1.8177733E-1,0E0,0E0,0E0,0E0],"parents":[2147483647,0,0,2,2,3,3,5,5,6,6],"right_children":[2,-1,4,6,-1,8,10,-1,-1,-1,-1],"split_conditions":[9.8250073E-1,-4.907028E-2,8.353728E-6,6.2821186E-1,8.758954E-2,1.2216401E1,1.7E1,1.6818784E-2,-1.1312463E-1,-3.2193664E-2,9.6587315E-2],"split_indices":[7,0,14,11,0,1,13,0,0,0,0],"split_type":[0,0,0,0,0,0,0,0,0,0,0],"sum_hessian":[8.879599E0,1.1215332E0,7.758065E0,6.517384E0,1.240681E0,4.0839334E0,2.4334505E0,2.976469E0,1.1074644E0,1.0151403E0,1.4183102E0],"tree_param":{"num_deleted":"0","num_feature":"15","num_nodes":"11","size_leaf_vector":"1"}},{"base_weights":[2.2368263E-2,-5.8813818E-2,1.2564114E-1,8.039855E-2,-6.7536905E-2,-4.774038E-2,1.1112328E-1,6.976047E-2,-5.0128996E-2,-6.99973E-2,5.113836E-2],"categories":[],"categories_nodes":[],"categories_segments":[],"categories_sizes":[],"default_left":[0,0,0,0,0,0,0,0,0,0,0],"id":39,"left_children":[1,3,5,7,-1,9,-1,-1,-1,-1,-1],"loss_changes":[8.870069E-2,1.5958677E-1,2.1236366E-1,1.91856E-1,0E0,1.8438274E-1,0E0,0E0,0E0,0E0,0E0],"parents":[2147483647,0,0,1,1,2,2,3,3,5,5],"right_children":[2,4,6,8,-1,10,-1,-1,-1,-1,-1],"split_conditions":[2E0,6.3145924E-1,7.175309E-6,6.8679074E-6,-6.7536905E-2,5.188151E-1,1.1112328E-1,6.976047E-2,-5.0128996E-2,-6.99973E-2,5.113836E-2],"split_indices":[10,12,14,14,0,11,0,0,0,0,0],"split_type":[0,0,0,0,0,0,0,0,0,0,0],"sum_hessian":[8.698492E0,5.111152E0,3.5873404E0,3.0634246E0,2.0477276E0,2.5710835E0,1.0162568E0,1.9346399E0,1.1287847E0,1.3519348E0,1.2191488E0],"tree_param":{"num_deleted":"0","num_feature":"15","num_nodes":"11","size_leaf_vector":"1"}},{"base_weights":[2.0969689E-2,-2.3400042E-2,5.920202E-2,1.0525331E-1,-1.0524824E-1,-4.1395225E-2,9.193009E-2,-2.3224545E-1,7.693168E-2,-1.1020237E-1,1.2927327E-2,5.308601E-2,-1.942615E-2],"categories":[],"categories_nodes":[],"categories_segments":[],"categories_sizes":[],"default_left":[0,0,0,0,0,0,0,0,0,0,0,0,0],"id":40,"left_children":[1,3,-1,5,7,-1,-1,9,11,-1,-1,-1,-1],"loss_changes":[7.9272926E-2,1.0075574E-1,0E0,2.2879085E-1,1.4986037E-1,0E0,0E0,1.5012676E-1,5.531335E-2,0E0,0E0,0E0,0E0],"parents":[2147483647,0,0,1,1,3,3,4,4,7,7,8,8],"right_children":[2,4,-1,6,8,-1,-1,10,12,-1,-1,-1,-1],"split_conditions":[6.8645864E0,1.0447454E4,5.920202E-2,3E0,6.4E1,-4.1395225E-2,9.193009E-2,4.8877633E-1,9.9E1,-1.1020237E-1,1.2927327E-2,5.308601E-2,-1.942615E-2],"split_indices":[7,2,0,9,13,0,0,12,13,0,0,0,0],"split_type":[0,0,0,0,0,0,0,0,0,0,0,0,0],"sum_hessian":[8.53998E0,7.516395E0,1.0235852E0,2.8113728E0,4.7050223E0,1.4148605E0,1.3965122E0,2.610462E0,2.0945606E0,1.5270505E0,1.0834115E0,1.0818919E0,1.0126687E0],"tree_param":{"num_deleted":"0","num_feature":"15","num_nodes":"13","size_leaf_vector":"1"}},{"base_weights":[1.9863907E-2,5.3825907E-2,-3.187674E-2,-1.563002E-1,6.371935E-2,1.7741203E-2,-7.7373594E-2,-1.20552555E-1,7.804113E-2,-6.275695E-2,1.2948752E-2],"categories":[],"categories_nodes":[],"categories_segments":[],"categories_sizes":[],"default_left":[0,0,0,0,0,0,0,0,0,0,0],"id":41,"left_children":[1,-1,3,5,7,-1,-1,9,-1,-1,-1],"loss_changes":[8.312745E-2,0E0,1.04277335E-1,9.701375E-2,2.1937773E-1,0E0,0E0,5.7838313E-2,0E0,0E0,0E0],"parents":[2147483647,0,0,2,2,3,3,4,4,7,7],"right_children":[2,-1,4,6,8,-1,-1,10,-1,-1,-1],"split_conditions":[5.4742517E0,5.3825907E-2,8.843381E0,1.2384599E4,2E0,1.7741203E-2,-7.7373594E-2,1.2467503E1,7.804113E-2,-6.275695E-2,1.2948752E-2],"split_indices":[1,0,1,2,10,0,0,1,0,0,0],"split_type":[0,0,0,0,0,0,0,0,0,0,0],"sum_hessian":[8.376532E0,1.4469157E0,6.929616E0,2.734939E0,4.194677E0,1.0104941E0,1.7244451E0,2.3635373E0,1.8311396E0,1.3531553E0,1.0103819E0],"tree_param":{"num_deleted":"0","num_feature":"15","num_nodes":"11","size_leaf_vector":"1"}},{"base_weights":[1.6586155E-2,1.1560473E-1,-5.641583E-2,7.684223E-2,-2.165427E-2,-7.701619E-2,5.6533203E-2,2.7267804E-2,-3.744334E-2,-6.711696E-2,2.1354951E-1,1.0019932E-1,5.152056E-3],"categories":[],"categories_nodes":[],"categories_segments":[],"categories_sizes":[],"default_left":[0,0,0,0,0,0,0,0,0,0,0,0,0],"id":42,"left_children":[1,3,5,-1,7,-1,9,-1,-1,-1,11,-1,-1],"loss_changes":[7.351264E-2,8.773862E-2,1.5040822E-1,0E0,4.7075696E-2,0E0,2.5285405E-1,0E0,0E0,0E0,7.701558E-2,0E0,0E0],"parents":[2147483647,0,0,1,1,2,2,4,4,6,6,10,10],"right_children":[2,4,6,-1,8,-1,10,-1,-1,-1,12,-1,-1],"split_conditions":[8.045086E0,6.1567802E1,9.21475E0,7.684223E-2,6.1985534E-1,-7.701619E-2,9.193493E3,2.7267804E-2,-3.744334E-2,-6.711696E-2,1.2216401E1,1.0019932E-1,5.152056E-3],"split_indices":[1,3,1,0,12,0,2,0,0,0,1,0,0],"split_type":[0,0,0,0,0,0,0,0,0,0,0,0,0],"sum_hessian":[8.267513E0,3.2609017E0,5.0066113E0,1.1832693E0,2.0776322E0,1.3462574E0,3.660354E0,1.0504506E0,1.0271816E0,1.1618114E0,2.4985425E0,1.1142838E0,1.3842589E0],"tree_param":{"num_deleted":"0","num_feature":"15","num_nodes":"13","size_leaf_vector":"1"}},{"base_weights":[1.5149553E-2,-6.901242E-2,9.499591E-2,7.479858E-2,-8.971853E-2,1.841276E-1,-2.096776E-2,7.518562E-2,-2.9282216E-2,1.01170264E-1,-2.4232326E-2],"categories":[],"categories_nodes":[],"categories_segments":[],"categories_sizes":[],"default_left":[0,0,0,0,0,0,0,0,0,0,0],"id":43,"left_children":[1,3,5,7,-1,9,-1,-1,-1,-1,-1],"loss_changes":[6.7880765E-2,1.8851516E-1,8.787702E-2,1.423818E-1,0E0,1.7276424E-1,0E0,0E0,0E0,0E0,0E0],"parents":[2147483647,0,0,1,1,2,2,3,3,5,5],"right_children":[2,4,6,8,-1,10,-1,-1,-1,-1,-1],"split_conditions":[3.9629285E0,3.0228558E0,1.5689036E4,5.1511544E-1,-8.971853E-2,5.192446E-6,-2.096776E-2,7.518562E-2,-2.9282216E-2,1.01170264E-1,-2.4232326E-2],"split_indices":[7,7,2,11,0,14,0,0,0,0,0],"split_type":[0,0,0,0,0,0,0,0,0,0,0],"sum_hessian":[8.125687E0,4.0219936E0,4.1036935E0,2.8901372E0,1.1318563E0,2.588033E0,1.5156605E0,1.206297E0,1.6838403E0,1.4670581E0,1.1209749E0],"tree_param":{"num_deleted":"0","num_feature":"15","num_nodes":"11","size_leaf_vector":"1"}},{"base_weights":[1.2429798E-2,-2.9965242E-2,5.1989317E-2,-1.2528117E-1,8.758507E-2,-8.669176E-2,2.9035194E-2,2.208499E-1,-4.7178436E-2,8.424516E-3,9.3801595E-2],"categories":[],"categories_nodes":[],"categories_segments":[],"categories_sizes":[],"default_left":[0,0,0,0,0,0,0,0,0,0,0],"id":44,"left_children":[1,3,-1,5,7,-1,-1,9,-1,-1,-1],"loss_changes":[6.651816E-2,1.0026157E-1,0E0,2.0289162E-1,1.7036799E-1,0E0,0E0,4.622726E-2,0E0,0E0,0E0],"parents":[2147483647,0,0,1,1,3,3,4,4,7,7],"right_children":[2,4,-1,6,8,-1,-1,10,-1,-1,-1],"split_conditions":[9.287937E-6,2.0124115E1,5.1989317E-2,3E0,4E0,-8.669176E-2,2.9035194E-2,5.8E1,-4.7178436E-2,8.424516E-3,9.3801595E-2],"split_indices":[14,0,0,8,8,0,0,13,0,0,0],"split_type":[0,0,0,0,0,0,0,0,0,0,0],"sum_hessian":[7.9919696E0,6.969072E0,1.0228976E0,3.8121862E0,3.1568859E0,2.0210838E0,1.7911022E0,2.1077101E0,1.0491756E0,1.1013662E0,1.0063441E0],"tree_param":{"num_deleted":"0","num_feature":"15","num_nodes":"11","size_leaf_vector":"1"}},{"base_weights":[1.4517995E-2,-3.130043E-2,4.62921E-2,-1.0957963E-1,9.914229E-2,4.905611E-2,-2.16421E-1,7.783251E-2,-3.183204E-2,-2.265085E-3,-1.21692844E-1],"categories":[],"categories_nodes":[],"categories_segments":[],"categories_sizes":[],"default_left":[0,0,0,0,0,0,0,0,0,0,0],"id":45,"left_children":[1,3,-1,5,7,-1,9,-1,-1,-1,-1],"loss_changes":[6.155036E-2,8.745668E-2,0E0,1.8603249E-1,1.3735953E-1,0E0,1.6061765E-1,0E0,0E0,0E0,0E0],"parents":[2147483647,0,0,1,1,3,3,4,4,6,6],"right_children":[2,4,-1,6,8,-1,10,-1,-1,-1,-1],"split_conditions":[6.2939105E0,1.0087129E1,4.62921E-2,7.9815786E3,3.066469E0,4.905611E-2,7.0215863E-1,7.783251E-2,-3.183204E-2,-2.265085E-3,-1.21692844E-1],"split_indices":[7,1,0,2,7,0,11,0,0,0,0],"split_type":[0,0,0,0,0,0,0,0,0,0,0],"sum_hessian":[7.85578E0,6.5010343E0,1.3547459E0,4.1628385E0,2.3381956E0,1.0214323E0,3.1414063E0,1.1646056E0,1.17359E0,1.9874643E0,1.1539419E0],"tree_param":{"num_deleted":"0","num_feature":"15","num_nodes":"11","size_leaf_vector":"1"}},{"base_weights":[1.2092775E-2,-4.2354327E-2,4.058628E-2,-1.403984E-1,1.15242936E-1,8.12452E-3,-2.3282032E-1,-2.045519E-2,7.5566545E-2,-1.9577343E-2,-8.4839866E-2],"categories":[],"categories_nodes":[],"categories_segments":[],"categories_sizes":[],"default_left":[0,0,0,0,0,0,0,0,0,0,0],"id":46,"left_children":[1,3,-1,5,7,-1,9,-1,-1,-1,-1],"loss_changes":[6.417316E-2,1.21312216E-1,0E0,7.8209534E-2,9.634579E-2,0E0,7.4867457E-3,0E0,0E0,0E0,0E0],"parents":[2147483647,0,0,1,1,3,3,4,4,6,6],"right_children":[2,4,-1,6,8,-1,10,-1,-1,-1,-1],"split_conditions":[1.6320473E4,2E0,4.058628E-2,5.192446E-6,4.3243065E-1,8.12452E-3,1.0555273E4,-2.045519E-2,7.5566545E-2,-1.9577343E-2,-8.4839866E-2],"split_indices":[2,10,0,14,11,0,2,0,0,0,0],"split_type":[0,0,0,0,0,0,0,0,0,0,0],"sum_hessian":[7.712973E0,5.804029E0,1.9089442E0,3.6453335E0,2.1586955E0,1.5476943E0,2.0976393E0,1.1354858E0,1.0232097E0,1.0116467E0,1.0859926E0],"tree_param":{"num_deleted":"0","num_feature":"15","num_nodes":"11","size_leaf_vector":"1"}},{"base_weights":[8.491119E-3,4.7202963E-2,-3.2647196E-2,3.7130345E-2,-1.0720529E-1,-2.1106538E-1,2.7357241E-2,-2.1495074E-3,-8.424983E-2],"categories":[],"categories_nodes":[],"categories_segments":[],"categories_sizes":[],"default_left":[0,0,0,0,0,0,0,0,0],"id":47,"left_children":[1,-1,3,-1,5,7,-1,-1,-1],"loss_changes":[5.8018677E-2,0E0,1.0183112E-1,0E0,1.36257E-1,5.530323E-2,0E0,0E0,0E0],"parents":[2147483647,0,0,2,2,4,4,5,5],"right_children":[2,-1,4,-1,6,8,-1,-1,-1],"split_conditions":[4.0706535E1,4.7202963E-2,3.5344744E-1,3.7130345E-2,2E0,7.5480886E0,2.7357241E-2,-2.1495074E-3,-8.424983E-2],"split_indices":[3,0,12,0,10,1,0,0,0],"split_type":[0,0,0,0,0,0,0,0,0],"sum_hessian":[7.635855E0,1.0417439E0,6.594111E0,1.9155244E0,4.678587E0,3.0290332E0,1.6495534E0,1.0533216E0,1.9757117E0],"tree_param":{"num_deleted":"0","num_feature":"15","num_nodes":"9","size_leaf_vector":"1"}},{"base_weights":[8.851091E-3,-3.9249577E-2,4.3522324E-2,-1.2589473E-1,1.0222371E-1,-9.3404196E-2,4.5786884E-2,-2.7822383E-2,7.585282E-2,-3.6103256E-2,5.757951E-2],"categories":[],"categories_nodes":[],"categories_segments":[],"categories_sizes":[],"default_left":[0,0,0,0,0,0,0,0,0,0,0],"id":48,"left_children":[1,3,-1,5,7,-1,9,-1,-1,-1,-1],"loss_changes":[6.1844695E-2,1.00149065E-1,0E0,1.6911656E-1,1.1907247E-1,0E0,1.0558696E-1,0E0,0E0,0E0,0E0],"parents":[2147483647,0,0,1,1,3,3,4,4,6,6],"right_children":[2,4,-1,6,8,-1,10,-1,-1,-1,-1],"split_conditions":[8.353728E-6,6.2821186E-1,4.3522324E-2,2E0,8.843381E0,-9.3404196E-2,3E0,-2.7822383E-2,7.585282E-2,-3.6103256E-2,5.757951E-2],"split_indices":[14,11,0,8,1,0,9,0,0,0,0],"split_type":[0,0,0,0,0,0,0,0,0,0,0],"sum_hessian":[7.5694256E0,6.1202345E0,1.449191E0,3.8639061E0,2.2563283E0,1.4663842E0,2.397522E0,1.1508743E0,1.1054541E0,1.2046592E0,1.1928627E0],"tree_param":{"num_deleted":"0","num_feature":"15","num_nodes":"11","size_leaf_vector":"1"}},{"base_weights":[8.589282E-3,-7.041903E-2,8.026182E-2,-1.7347457E-1,3.7671816E-2,-2.8484438E-2,1.4992703E-1,-5.641943E-3,-7.4719705E-2,-7.7807507E-3,9.771065E-2],"categories":[],"categories_nodes":[],"categories_segments":[],"categories_sizes":[],"default_left":[0,0,0,0,0,0,0,0,0,0,0],"id":49,"left_children":[1,3,5,7,-1,-1,9,-1,-1,-1,-1],"loss_changes":[5.3489275E-2,1.13702945E-1,7.400645E-2,3.5096534E-2,0E0,0E0,1.287418E-1,0E0,0E0,0E0,0E0],"parents":[2147483647,0,0,1,1,2,2,3,3,6,6],"right_children":[2,4,6,8,-1,-1,10,-1,-1,-1,-1],"split_conditions":[3.7321105E0,1.4605515E4,2.9E1,1.8683925E0,3.7671816E-2,-2.8484438E-2,2.0124115E1,-5.641943E-3,-7.4719705E-2,-7.7807507E-3,9.771065E-2],"split_indices":[7,2,13,7,0,0,0,0,0,0,0],"split_type":[0,0,0,0,0,0,0,0,0,0,0],"sum_hessian":[7.4477534E0,3.550902E0,3.8968515E0,2.4025118E0,1.14839E0,1.0053781E0,2.8914735E0,1.1986758E0,1.2038361E0,1.8714937E0,1.0199797E0],"tree_param":{"num_deleted":"0","num_feature":"15","num_nodes":"11","size_leaf_vector":"1"}},{"base_weights":[8.568149E-3,1.1356383E-1,-4.4205636E-2,-2.1253082E-3,5.40276E-2,4.7723E-2,-7.243119E-2,1.5789257E-1,-3.8909353E-2,-1.0277133E-2,7.586815E-2],"categories":[],"categories_nodes":[],"categories_segments":[],"categories_sizes":[],"default_left":[0,0,0,0,0,0,0,0,0,0,0],"id":50,"left_children":[1,3,5,-1,-1,7,-1,9,-1,-1,-1],"loss_changes":[5.1308013E-2,2.595323E-2,1.2537144E-1,0E0,0E0,1.2051456E-1,0E0,7.4531354E-2,0E0,0E0,0E0],"parents":[2147483647,0,0,1,1,2,2,5,5,7,7],"right_children":[2,4,6,-1,-1,8,-1,10,-1,-1,-1],"split_conditions":[1.2769916E1,3.5277007E0,1.2216401E1,-2.1253082E-3,5.40276E-2,4E0,-7.243119E-2,3.6032125E-1,-3.8909353E-2,-1.0277133E-2,7.586815E-2],"split_indices":[0,7,1,0,0,9,0,12,0,0,0],"split_type":[0,0,0,0,0,0,0,0,0,0,0],"sum_hessian":[7.35367E0,2.0744889E0,5.2791815E0,1.0549182E0,1.0195706E0,4.1178904E0,1.161291E0,2.60832E0,1.5095704E0,1.0744797E0,1.5338404E0],"tree_param":{"num_deleted":"0","num_feature":"15","num_nodes":"11","size_leaf_vector":"1"}},{"base_weights":[6.920031E-3,4.299241E-2,-3.2931324E-2,-1.2798272E-1,4.3952405E-2,3.558105E-2,-2.1445853E-1,-3.7997176E-3,-1.13398045E-1],"categories":[],"categories_nodes":[],"categories_segments":[],"categories_sizes":[],"default_left":[0,0,0,0,0,0,0,0,0],"id":51,"left_children":[1,-1,3,5,-1,-1,7,-1,-1],"loss_changes":[4.9688864E-2,0E0,1.4182596E-1,1.374056E-1,0E0,0E0,1.3525541E-1,0E0,0E0],"parents":[2147483647,0,0,2,2,3,3,6,6],"right_children":[2,-1,4,6,-1,-1,8,-1,-1],"split_conditions":[4.1347492E1,4.299241E-2,1.0087129E1,8.238403E3,4.3952405E-2,3.558105E-2,7.0215863E-1,-3.7997176E-3,-1.13398045E-1],"split_indices":[3,0,1,2,0,0,11,0,0],"split_type":[0,0,0,0,0,0,0,0,0],"sum_hessian":[7.27369E0,1.0577079E0,6.2159824E0,4.2509575E0,1.9650251E0,1.0072519E0,3.2437055E0,1.9343174E0,1.309388E0],"tree_param":{"num_deleted":"0","num_feature":"15","num_nodes":"9","size_leaf_vector":"1"}},{"base_weights":[5.250471E-3,-3.946414E-2,4.6160303E-2,5.121685E-2,-7.1571015E-2,-4.596868E-2,5.271669E-2,5.9811324E-2,-6.913297E-2],"categories":[],"categories_nodes":[],"categories_segments":[],"categories_sizes":[],"default_left":[0,0,0,0,0,0,0,0,0],"id":52,"left_children":[1,3,-1,5,-1,7,-1,-1,-1],"loss_changes":[6.0427863E-2,1.401135E-1,0E0,7.69301E-2,0E0,2.2645308E-1,0E0,0E0,0E0],"parents":[2147483647,0,0,1,1,3,3,5,5],"right_children":[2,4,-1,6,-1,8,-1,-1,-1],"split_conditions":[8.504519E-1,1.2216401E1,4.6160303E-2,1.451593E4,-7.1571015E-2,4.867548E-6,5.271669E-2,5.9811324E-2,-6.913297E-2],"split_indices":[11,1,0,2,0,14,0,0,0],"split_type":[0,0,0,0,0,0,0,0,0],"sum_hessian":[7.1794825E0,6.0835705E0,1.0959122E0,4.6902184E0,1.3933519E0,2.9883695E0,1.701849E0,1.2479379E0,1.7404315E0],"tree_param":{"num_deleted":"0","num_feature":"15","num_nodes":"9","size_leaf_vector":"1"}},{"base_weights":[5.9442744E-3,-3.9932527E-2,4.462922E-2,-9.790421E-2,4.3065757E-2,3.396736E-2,-1.6825958E-1,1.0188781E-2,-8.670663E-2],"categories":[],"categories_nodes":[],"categories_segments":[],"categories_sizes":[],"default_left":[0,0,0,0,0,0,0,0,0],"id":53,"left_children":[1,3,-1,5,-1,-1,7,-1,-1],"loss_changes":[5.8820967E-2,8.741654E-2,0E0,1.0573271E-1,0E0,0E0,1.2652898E-1,0E0,0E0],"parents":[2147483647,0,0,1,1,3,3,6,6],"right_children":[2,4,-1,6,-1,-1,8,-1,-1],"split_conditions":[6.2939105E0,1.2696806E1,4.462922E-2,7.6742954E3,4.3065757E-2,3.396736E-2,5.1511544E-1,1.0188781E-2,-8.670663E-2],"split_indices":[7,1,0,2,0,0,11,0,0],"split_type":[0,0,0,0,0,0,0,0,0],"sum_hessian":[7.0707436E0,5.8969235E0,1.1738201E0,4.8355584E0,1.0613652E0,1.0563234E0,3.779235E0,1.6817819E0,2.0974529E0],"tree_param":{"num_deleted":"0","num_feature":"15","num_nodes":"9","size_leaf_vector":"1"}},{"base_weights":[9.691485E-3,-3.747521E-2,4.118761E-2,-1.3102065E-1,9.99001E-2,-8.917321E-2,3.8478643E-2,7.284455E-2,-2.8405996E-2,-3.4133546E-2,5.1837943E-2],"categories":[],"categories_nodes":[],"categories_segments":[],"categories_sizes":[],"default_left":[0,0,0,0,0,0,0,0,0,0,0],"id":54,"left_children":[1,3,-1,5,7,-1,9,-1,-1,-1,-1],"loss_changes":[5.3191487E-2,9.808683E-2,0E0,1.3448834E-1,1.13282174E-1,0E0,8.1988364E-2,0E0,0E0,0E0,0E0],"parents":[2147483647,0,0,1,1,3,3,4,4,6,6],"right_children":[2,4,-1,6,8,-1,10,-1,-1,-1,-1],"split_conditions":[8.353728E-6,5.855058E-1,4.118761E-2,2E0,2.2121754E1,-8.917321E-2,3E0,7.284455E-2,-2.8405996E-2,-3.4133546E-2,5.1837943E-2],"split_indices":[14,11,0,8,0,0,9,0,0,0,0],"split_type":[0,0,0,0,0,0,0,0,0,0,0],"sum_hessian":[6.9831305E0,5.6141906E0,1.3689399E0,3.3674142E0,2.2467763E0,1.3196295E0,2.0477846E0,1.1524812E0,1.094295E0,1.0314461E0,1.0163386E0],"tree_param":{"num_deleted":"0","num_feature":"15","num_nodes":"11","size_leaf_vector":"1"}},{"base_weights":[8.654843E-3,4.1400395E-2,-3.616328E-2,3.2357898E-2,-5.2653838E-2,-7.839085E-2,4.9599316E-2,-6.9259554E-2,2.4746511E-2],"categories":[],"categories_nodes":[],"categories_segments":[],"categories_sizes":[],"default_left":[0,0,0,0,0,0,0,0,0],"id":55,"left_children":[1,-1,3,5,-1,7,-1,-1,-1],"loss_changes":[5.064545E-2,0E0,6.9092505E-2,9.095858E-2,0E0,1.0656769E-1,0E0,0E0,0E0],"parents":[2147483647,0,0,2,2,3,3,5,5],"right_children":[2,-1,4,6,-1,8,-1,-1,-1],"split_conditions":[5.4742517E0,4.1400395E-2,8.5493237E-1,1.0087129E1,-5.2653838E-2,4.4E1,4.9599316E-2,-6.9259554E-2,2.4746511E-2],"split_indices":[1,0,12,1,0,13,0,0,0],"split_type":[0,0,0,0,0,0,0,0,0],"sum_hessian":[6.875512E0,1.23426E0,5.641252E0,4.296408E0,1.344844E0,2.5680466E0,1.7283614E0,1.095119E0,1.4729277E0],"tree_param":{"num_deleted":"0","num_feature":"15","num_nodes":"9","size_leaf_vector":"1"}},{"base_weights":[5.306292E-3,-3.6043655E-2,4.2760707E-2,9.843736E-2,-1.1747922E-1,-2.6152687E-2,6.994023E-2,-7.443873E-2,2.6967479E-2,3.297733E-2,-1.9486878E-2],"categories":[],"categories_nodes":[],"categories_segments":[],"categories_sizes":[],"default_left":[0,0,0,0,0,0,0,0,0,0,0],"id":56,"left_children":[1,3,-1,5,7,-1,-1,-1,9,-1,-1],"loss_changes":[4.9427E-2,8.599099E-2,0E0,9.801039E-2,9.5176466E-2,0E0,0E0,0E0,3.099923E-2,0E0,0E0],"parents":[2147483647,0,0,1,1,3,3,4,4,8,8],"right_children":[2,4,-1,6,8,-1,-1,-1,10,-1,-1],"split_conditions":[3.0365383E1,4.0527652E-6,4.2760707E-2,6.936851E1,6.527876E-6,-2.6152687E-2,6.994023E-2,-7.443873E-2,5.8E1,3.297733E-2,-1.9486878E-2],"split_indices":[0,14,0,3,14,0,0,0,13,0,0],"split_type":[0,0,0,0,0,0,0,0,0,0,0],"sum_hessian":[6.8051014E0,5.795999E0,1.0091023E0,2.107289E0,3.6887097E0,1.0345176E0,1.0727714E0,1.5599599E0,2.1287498E0,1.0160182E0,1.1127318E0],"tree_param":{"num_deleted":"0","num_feature":"15","num_nodes":"11","size_leaf_vector":"1"}},{"base_weights":[7.0901997E-3,-3.65273E-2,4.2283975E-2,-1.2910789E-1,5.4618876E-2,-6.7599796E-2,1.4956298E-2,-3.403341E-2,5.8031887E-2],"categories":[],"categories_nodes":[],"categories_segments":[],"categories_sizes":[],"default_left":[0,0,0,0,0,0,0,0,0],"id":57,"left_children":[1,3,-1,5,7,-1,-1,-1,-1],"loss_changes":[5.0275326E-2,6.294584E-2,0E0,7.2940856E-2,1.1621189E-1,0E0,0E0,0E0,0E0],"parents":[2147483647,0,0,1,1,3,3,4,4],"right_children":[2,4,-1,6,8,-1,-1,-1,-1],"split_conditions":[6.2939105E0,4.867548E-6,4.2283975E-2,7.513951E1,1.759648E1,-6.7599796E-2,1.4956298E-2,-3.403341E-2,5.8031887E-2],"split_indices":[7,14,0,3,0,0,0,0,0],"split_type":[0,0,0,0,0,0,0,0,0],"sum_hessian":[6.729224E0,5.623806E0,1.1054183E0,2.583329E0,3.0404773E0,1.51151E0,1.071819E0,1.4580653E0,1.5824119E0],"tree_param":{"num_deleted":"0","num_feature":"15","num_nodes":"9","size_leaf_vector":"1"}},{"base_weights":[6.822019E-3,3.3671107E-2,-4.640769E-2,4.016247E-2,-6.7388974E-2,1.3056065E-1,-3.138476E-2,6.857707E-2,-1.0487648E-2],"categories":[],"categories_nodes":[],"categories_segments":[],"categories_sizes":[],"default_left":[0,0,0,0,0,0,0,0,0],"id":58,"left_children":[1,-1,3,5,-1,7,-1,-1,-1],"loss_changes":[4.817441E-2,0E0,9.8437674E-2,7.581239E-2,0E0,6.264638E-2,0E0,0E0,0E0],"parents":[2147483647,0,0,2,2,3,3,5,5],"right_children":[2,-1,4,6,-1,8,-1,-1,-1],"split_conditions":[1.2769916E1,3.3671107E-2,1.2216401E1,4E0,-6.7388974E-2,1.4172207E4,-3.138476E-2,6.857707E-2,-1.0487648E-2],"split_indices":[0,0,1,9,0,2,0,0,0],"split_type":[0,0,0,0,0,0,0,0,0],"sum_hessian":[6.657129E0,1.8617054E0,4.795423E0,3.7490153E0,1.0464079E0,2.3684077E0,1.3806077E0,1.2481427E0,1.1202649E0],"tree_param":{"num_deleted":"0","num_feature":"15","num_nodes":"9","size_leaf_vector":"1"}},{"base_weights":[3.9597484E-3,4.1097395E-2,-3.821119E-2,2.9880673E-2,-1.16764925E-1,2.7984092E-2,-2.0473203E-1,-1.2871678E-2,-7.7433854E-2],"categories":[],"categories_nodes":[],"categories_segments":[],"categories_sizes":[],"default_left":[0,0,0,0,0,0,0,0,0],"id":59,"left_children":[1,-1,3,-1,5,-1,7,-1,-1],"loss_changes":[4.7846664E-2,0E0,8.253108E-2,0E0,1.0468064E-1,0E0,1.9830674E-2,0E0,0E0],"parents":[2147483647,0,0,2,2,4,4,6,6],"right_children":[2,-1,4,-1,6,-1,8,-1,-1],"split_conditions":[4.1649395E1,4.1097395E-2,4.1242826E-1,2.9880673E-2,3.7E1,2.7984092E-2,1.2602701E4,-1.2871678E-2,-7.7433854E-2],"split_indices":[3,0,12,0,13,0,2,0,0],"split_type":[0,0,0,0,0,0,0,0,0],"sum_hessian":[6.5956445E0,1.0463558E0,5.5492887E0,1.9174299E0,3.6318588E0,1.0542213E0,2.5776377E0,1.0867791E0,1.4908584E0],"tree_param":{"num_deleted":"0","num_feature":"15","num_nodes":"9","size_leaf_vector":"1"}},{"base_weights":[3.830587E-3,-7.076361E-2,7.401261E-2,-1.4945711E-1,2.5645712E-2,1.3877007E-1,-1.5453644E-2,-3.2085797E-3,-6.452199E-2,7.908712E-2,-1.7914899E-2],"categories":[],"categories_nodes":[],"categories_segments":[],"categories_sizes":[],"default_left":[0,0,0,0,0,0,0,0,0,0,0],"id":60,"left_children":[1,3,5,7,-1,9,-1,-1,-1,-1,-1],"loss_changes":[4.47006E-2,6.399342E-2,4.2692475E-2,2.6235491E-2,0E0,9.393594E-2,0E0,0E0,0E0,0E0,0E0],"parents":[2147483647,0,0,1,1,2,2,3,3,5,5],"right_children":[2,4,6,8,-1,10,-1,-1,-1,-1,-1],"split_conditions":[3.7321105E0,1.4605515E4,1.5689036E4,1.8683925E0,2.5645712E-2,5.192446E-6,-1.5453644E-2,-3.2085797E-3,-6.452199E-2,7.908712E-2,-1.7914899E-2],"split_indices":[7,2,2,7,0,14,0,0,0,0,0],"split_type":[0,0,0,0,0,0,0,0,0,0,0],"sum_hessian":[6.538091E0,3.1654015E0,3.3726897E0,2.1340683E0,1.0313332E0,2.155276E0,1.2174137E0,1.0585327E0,1.0755355E0,1.1215919E0,1.0336841E0],"tree_param":{"num_deleted":"0","num_feature":"15","num_nodes":"11","size_leaf_vector":"1"}},{"base_weights":[3.3113987E-3,3.6951043E-2,-3.8841467E-2,-1.095766E-1,6.556644E-2,-6.5161265E-2,8.623131E-3,-1.3166782E-2,4.5203682E-2],"categories":[],"categories_nodes":[],"categories_segments":[],"categories_sizes":[],"default_left":[0,0,0,0,0,0,0,0,0],"id":61,"left_children":[1,-1,3,5,7,-1,-1,-1,-1],"loss_changes":[4.256125E-2,0E0,5.365231E-2,6.765488E-2,3.61149E-2,0E0,0E0,0E0,0E0],"parents":[2147483647,0,0,2,2,3,3,4,4],"right_children":[2,-1,4,6,8,-1,-1,-1,-1],"split_conditions":[5.4742517E0,3.6951043E-2,1.0087129E1,1.8348665E1,3E0,-6.5161265E-2,8.623131E-3,-1.3166782E-2,4.5203682E-2],"split_indices":[1,0,1,0,9,0,0,0,0],"split_type":[0,0,0,0,0,0,0,0,0],"sum_hessian":[6.4770856E0,1.1851647E0,5.2919207E0,3.125158E0,2.1667626E0,1.4368452E0,1.6883129E0,1.1597053E0,1.0070573E0],"tree_param":{"num_deleted":"0","num_feature":"15","num_nodes":"9","size_leaf_vector":"1"}},{"base_weights":[3.9739516E-3,-3.7323818E-2,3.946794E-2,2.5300788E-2,-9.420474E-2,-6.711345E-2,1.8723248E-2],"categories":[],"categories_nodes":[],"categories_segments":[],"categories_sizes":[],"default_left":[0,0,0,0,0,0,0],"id":62,"left_children":[1,3,-1,-1,5,-1,-1],"loss_changes":[4.4065133E-2,5.2185036E-2,0E0,0E0,1.1189973E-1,0E0,0E0],"parents":[2147483647,0,0,1,1,4,4],"right_children":[2,4,-1,-1,6,-1,-1],"split_conditions":[6.2939105E0,1.2769916E1,3.946794E-2,2.5300788E-2,4.867548E-6,-6.711345E-2,1.8723248E-2],"split_indices":[7,0,0,0,14,0,0],"split_type":[0,0,0,0,0,0,0],"sum_hessian":[6.431153E0,5.3929806E0,1.0381721E0,1.5643642E0,3.8286166E0,1.8611796E0,1.9674369E0],"tree_param":{"num_deleted":"0","num_feature":"15","num_nodes":"7","size_leaf_vector":"1"}},{"base_weights":[4.9434467E-3,-3.434393E-2,4.2378187E-2,5.1829133E-2,-4.3642193E-2,-1.3610916E-1,4.0771328E-2,-7.7052504E-2,7.974416E-3],"categories":[],"categories_nodes":[],"categories_segments":[],"categories_sizes":[],"default_left":[0,0,0,0,0,0,0,0,0],"id":63,"left_children":[1,-1,3,-1,5,7,-1,-1,-1],"loss_changes":[3.7840877E-2,0E0,7.87376E-2,0E0,9.524984E-2,7.6578386E-2,0E0,0E0,0E0],"parents":[2147483647,0,0,2,2,4,4,5,5],"right_children":[2,-1,4,-1,6,8,-1,-1,-1],"split_conditions":[1.8429106E-1,-3.434393E-2,1.4606362E1,5.1829133E-2,7.1694857E-1,2.2505074E1,4.0771328E-2,-7.7052504E-2,7.974416E-3],"split_indices":[12,0,0,0,11,0,0,0,0],"split_type":[0,0,0,0,0,0,0,0,0],"sum_hessian":[6.379234E0,1.0312511E0,5.3479824E0,1.7249622E0,3.6230204E0,2.551117E0,1.0719033E0,1.1321999E0,1.4189172E0],"tree_param":{"num_deleted":"0","num_feature":"15","num_nodes":"9","size_leaf_vector":"1"}},{"base_weights":[1.9689035E-3,-6.494883E-2,7.610695E-2,2.4434E-2,-1.5476133E-1,-2.2459485E-2,4.608376E-2,-1.1774024E-2,-5.800278E-2],"categories":[],"categories_nodes":[],"categories_segments":[],"categories_sizes":[],"default_left":[0,0,0,0,0,0,0,0,0],"id":64,"left_children":[1,3,5,-1,7,-1,-1,-1,-1],"loss_changes":[4.1214183E-2,7.022239E-2,5.747226E-2,0E0,6.052874E-3,0E0,0E0,0E0,0E0],"parents":[2147483647,0,0,1,1,2,2,4,4],"right_children":[2,4,6,-1,8,-1,-1,-1,-1],"split_conditions":[4.0310926E0,4.6842495E-1,3.0315468E-1,2.4434E-2,2.278677E0,-2.2459485E-2,4.608376E-2,-1.1774024E-2,-5.800278E-2],"split_indices":[7,11,11,0,7,0,0,0,0],"split_type":[0,0,0,0,0,0,0,0,0],"sum_hessian":[6.3110313E0,3.3821852E0,2.9288464E0,1.321413E0,2.0607722E0,1.0050992E0,1.9237471E0,1.0210218E0,1.0397503E0],"tree_param":{"num_deleted":"0","num_feature":"15","num_nodes":"9","size_leaf_vector":"1"}},{"base_weights":[-1.5850547E-3,-7.339317E-2,5.282914E-2,1.5391345E-2,-5.278512E-2,1.6794933E-1,-2.8409047E-2,4.697663E-3,7.103813E-2],"categories":[],"categories_nodes":[],"categories_segments":[],"categories_sizes":[],"default_left":[0,0,0,0,0,0,0,0,0],"id":65,"left_children":[1,3,5,-1,-1,7,-1,-1,-1],"loss_changes":[3.2262404E-2,5.442986E-2,9.59672E-2,0E0,0E0,2.783417E-2,0E0,0E0,0E0],"parents":[2147483647,0,0,1,1,2,2,5,5],"right_children":[2,4,6,-1,-1,8,-1,-1,-1],"split_conditions":[4.6E1,2.3010408E1,6.1985534E-1,1.5391345E-2,-5.278512E-2,1.2531798E4,-2.8409047E-2,4.697663E-3,7.103813E-2],"split_indices":[13,0,12,0,0,2,0,0,0],"split_type":[0,0,0,0,0,0,0,0,0],"sum_hessian":[6.2644835E0,2.550245E0,3.7142384E0,1.3764226E0,1.1738223E0,2.008494E0,1.7057444E0,1.0074254E0,1.0010686E0],"tree_param":{"num_deleted":"0","num_feature":"15","num_nodes":"9","size_leaf_vector":"1"}},{"base_weights":[3.688908E-4,-5.6021195E-2,7.803172E-2,3.3385646E-2,-1.3253649E-1,-2.1816188E-2,5.777604E-2,1.3301556E-2,-8.592746E-2],"categories":[],"categories_nodes":[],"categories_segments":[],"categories_sizes":[],"default_left":[0,0,0,0,0,0,0,0,0],"id":66,"left_children":[1,3,5,-1,7,-1,-1,-1,-1],"loss_changes":[3.5980515E-2,7.573076E-2,7.365453E-2,0E0,1.14093944E-1,0E0,0E0,0E0,0E0],"parents":[2147483647,0,0,1,1,2,2,4,4],"right_children":[2,4,6,-1,8,-1,-1,-1,-1],"split_conditions":[2E0,6.1555014E0,8.843381E0,3.3385646E-2,6.3145924E-1,-2.1816188E-2,5.777604E-2,1.3301556E-2,-8.592746E-2],"split_indices":[10,1,1,0,12,0,0,0,0],"split_type":[0,0,0,0,0,0,0,0,0],"sum_hessian":[6.2176523E0,3.763604E0,2.4540482E0,1.0384753E0,2.7251287E0,1.2172978E0,1.2367505E0,1.599075E0,1.1260538E0],"tree_param":{"num_deleted":"0","num_feature":"15","num_nodes":"9","size_leaf_vector":"1"}},{"base_weights":[-2.8090164E-4,6.997167E-2,-5.882593E-2,-1.796406E-2,5.073103E-2,-5.1513966E-2,4.8826706E-2,3.6060415E-2,-1.3737082E-2],"categories":[],"categories_nodes":[],"categories_segments":[],"categories_sizes":[],"default_left":[0,0,0,0,0,0,0,0,0],"id":67,"left_children":[1,3,5,-1,-1,-1,7,-1,-1],"loss_changes":[3.3544518E-2,5.7870783E-2,6.241469E-2,0E0,0E0,0E0,2.6130974E-2,0E0,0E0],"parents":[2147483647,0,0,1,1,2,2,6,6],"right_children":[2,4,6,-1,-1,-1,8,-1,-1],"split_conditions":[8.257595E0,4.8212346E-1,1.0087129E1,-1.796406E-2,5.073103E-2,-5.1513966E-2,3.2881918E0,3.6060415E-2,-1.3737082E-2],"split_indices":[1,11,1,0,0,0,7,0,0],"split_type":[0,0,0,0,0,0,0,0,0],"sum_hessian":[6.1550717E0,2.7090738E0,3.445998E0,1.3442305E0,1.3648431E0,1.3916309E0,2.054367E0,1.01688E0,1.037487E0],"tree_param":{"num_deleted":"0","num_feature":"15","num_nodes":"9","size_leaf_vector":"1"}},{"base_weights":[3.5443422E-4,-6.888956E-2,6.81028E-2,8.4290365E-3,-4.619628E-2,3.931013E-2,-1.5865298E-2],"categories":[],"categories_nodes":[],"categories_segments":[],"categories_sizes":[],"default_left":[0,0,0,0,0,0,0],"id":68,"left_children":[1,3,5,-1,-1,-1,-1],"loss_changes":[3.8067445E-2,3.746871E-2,3.8138893E-2,0E0,0E0,0E0,0E0],"parents":[2147483647,0,0,1,1,2,2],"right_children":[2,4,6,-1,-1,-1,-1],"split_conditions":[3.7321105E0,2.3010408E1,1.5689036E4,8.4290365E-3,-4.619628E-2,3.931013E-2,-1.5865298E-2],"split_indices":[7,0,2,0,0,0,0],"split_type":[0,0,0,0,0,0,0],"sum_hessian":[6.11462E0,3.0156016E0,3.0990188E0,1.7224048E0,1.2931967E0,1.9840069E0,1.115012E0],"tree_param":{"num_deleted":"0","num_feature":"15","num_nodes":"7","size_leaf_vector":"1"}},{"base_weights":[-1.7594671E-3,-5.608979E-2,7.3945895E-2,2.6895033E-2,-1.2707622E-1,-1.7573016E-2,5.1397327E-2,-5.271601E-2,-2.4613212E-3],"categories":[],"categories_nodes":[],"categories_segments":[],"categories_sizes":[],"default_left":[0,0,0,0,0,0,0,0,0],"id":69,"left_children":[1,3,5,-1,7,-1,-1,-1,-1],"loss_changes":[3.3294305E-2,5.995685E-2,5.3809937E-2,0E0,1.9203395E-2,0E0,0E0,0E0,0E0],"parents":[2147483647,0,0,1,1,2,2,4,4],"right_children":[2,4,6,-1,8,-1,-1,-1,-1],"split_conditions":[2E0,4.0527652E-6,8.843381E0,2.6895033E-2,6.6431445E-1,-1.7573016E-2,5.1397327E-2,-5.271601E-2,-2.4613212E-3],"split_indices":[10,14,1,0,11,0,0,0,0],"split_type":[0,0,0,0,0,0,0,0,0],"sum_hessian":[6.0863147E0,3.694234E0,2.392081E0,1.123891E0,2.5703428E0,1.1819825E0,1.2100984E0,1.4845966E0,1.0857462E0],"tree_param":{"num_deleted":"0","num_feature":"15","num_nodes":"9","size_leaf_vector":"1"}},{"base_weights":[-4.3345036E-4,-4.0075317E-2,3.0445166E-2,2.9249992E-2,-4.620193E-2,4.469746E-2,-2.6149591E-2],"categories":[],"categories_nodes":[],"categories_segments":[],"categories_sizes":[],"default_left":[0,0,0,0,0,0,0],"id":70,"left_children":[1,3,-1,5,-1,-1,-1],"loss_changes":[3.254877E-2,5.025449E-2,0E0,7.490045E-2,0E0,0E0,0E0],"parents":[2147483647,0,0,1,1,3,3],"right_children":[2,4,-1,6,-1,-1,-1],"split_conditions":[8.353728E-6,6.2114573E-6,3.0445166E-2,8.045086E0,-4.620193E-2,4.469746E-2,-2.6149591E-2],"split_indices":[14,14,0,1,0,0,0],"split_type":[0,0,0,0,0,0,0],"sum_hessian":[6.049607E0,4.792354E0,1.2572527E0,3.4415128E0,1.3508412E0,1.5585767E0,1.8829361E0],"tree_param":{"num_deleted":"0","num_feature":"15","num_nodes":"7","size_leaf_vector":"1"}},{"base_weights":[1.279174E-4,-3.66175E-2,2.9634034E-2,-9.611089E-2,3.4707025E-2,3.142542E-2,-6.47723E-2,-4.0072907E-2,5.1964194E-2],"categories":[],"categories_nodes":[],"categories_segments":[],"categories_sizes":[],"default_left":[0,0,0,0,0,0,0,0,0],"id":71,"left_children":[1,3,-1,5,-1,7,-1,-1,-1],"loss_changes":[2.9032627E-2,6.401856E-2,0E0,7.927109E-2,0E0,9.7321235E-2,0E0,0E0,0E0],"parents":[2147483647,0,0,1,1,3,3,5,5],"right_children":[2,4,-1,6,-1,8,-1,-1,-1],"split_conditions":[2.7430395E1,1.6320473E4,2.9634034E-2,1.1880896E4,3.4707025E-2,6.40262E1,-6.47723E-2,-4.0072907E-2,5.1964194E-2],"split_indices":[0,2,0,2,0,3,0,0,0],"split_type":[0,0,0,0,0,0,0,0,0],"sum_hessian":[6.011155E0,4.8379607E0,1.1731943E0,3.7443397E0,1.0936211E0,2.1708827E0,1.5734568E0,1.0300798E0,1.140803E0],"tree_param":{"num_deleted":"0","num_feature":"15","num_nodes":"9","size_leaf_vector":"1"}},{"base_weights":[1.7109301E-3,-5.6656234E-2,6.680163E-2,4.0834513E-2,-5.521681E-2,-8.376203E-3,3.8589083E-2,4.173982E-2,-2.61898E-2],"categories":[],"categories_nodes":[],"categories_segments":[],"categories_sizes":[],"default_left":[0,0,0,0,0,0,0,0,0],"id":72,"left_children":[1,3,5,7,-1,-1,-1,-1,-1],"loss_changes":[3.017469E-2,5.9722923E-2,2.5511902E-2,5.2446444E-2,0E0,0E0,0E0,0E0,0E0],"parents":[2147483647,0,0,1,1,2,2,3,3],"right_children":[2,4,6,8,-1,-1,-1,-1,-1],"split_conditions":[4.0310926E0,3.0228558E0,5.334205E-1,5.4E1,-5.521681E-2,-8.376203E-3,3.8589083E-2,4.173982E-2,-2.61898E-2],"split_indices":[7,7,11,13,0,0,0,0,0],"split_type":[0,0,0,0,0,0,0,0,0],"sum_hessian":[5.9462624E0,3.203367E0,2.7428954E0,2.1996193E0,1.0037477E0,1.2998801E0,1.4430153E0,1.1961503E0,1.003469E0],"tree_param":{"num_deleted":"0","num_feature":"15","num_nodes":"9","size_leaf_vector":"1"}},{"base_weights":[-1.4973717E-4,-7.243898E-2,5.5065475E-2,-5.0993726E-2,2.0013174E-2,4.5692228E-2,-2.2205299E-2],"categories":[],"categories_nodes":[],"categories_segments":[],"categories_sizes":[],"default_left":[0,0,0,0,0,0,0],"id":73,"left_children":[1,3,5,-1,-1,-1,-1],"loss_changes":[3.1546943E-2,5.7781283E-2,6.753938E-2,0E0,0E0,0E0,0E0],"parents":[2147483647,0,0,1,1,2,2],"right_children":[2,4,6,-1,-1,-1,-1],"split_conditions":[4.6E1,5.599233E-1,6.1985534E-1,-5.0993726E-2,2.0013174E-2,4.5692228E-2,-2.2205299E-2],"split_indices":[13,12,12,0,0,0,0],"split_type":[0,0,0,0,0,0,0],"sum_hessian":[5.904245E0,2.4217222E0,3.4825225E0,1.2934746E0,1.1282477E0,1.883621E0,1.5989016E0],"tree_param":{"num_deleted":"0","num_feature":"15","num_nodes":"7","size_leaf_vector":"1"}},{"base_weights":[-1.178048E-3,6.649878E-2,-5.6537874E-2,-1.1263674E-2,4.2329986E-2,2.4067847E-2,-4.4128392E-2],"categories":[],"categories_nodes":[],"categories_segments":[],"categories_sizes":[],"default_left":[0,0,0,0,0,0,0],"id":74,"left_children":[1,3,5,-1,-1,-1,-1],"loss_changes":[2.9479293E-2,3.2839134E-2,6.5260336E-2,0E0,0E0,0E0,0E0],"parents":[2147483647,0,0,1,1,2,2],"right_children":[2,4,6,-1,-1,-1,-1],"split_conditions":[8.257595E0,4.8212346E-1,5.1511544E-1,-1.1263674E-2,4.2329986E-2,2.4067847E-2,-4.4128392E-2],"split_indices":[1,11,11,0,0,0,0],"split_type":[0,0,0,0,0,0,0],"sum_hessian":[5.8648233E0,2.548319E0,3.3165045E0,1.2715861E0,1.2767329E0,1.366626E0,1.9498785E0],"tree_param":{"num_deleted":"0","num_feature":"15","num_nodes":"7","size_leaf_vector":"1"}},{"base_weights":[8.0450735E-4,-5.071753E-2,7.2127886E-2,2.181247E-2,-1.2921244E-1,-1.5120254E-2,5.215177E-2,5.678409E-3,-6.589301E-2],"categories":[],"categories_nodes":[],"categories_segments":[],"categories_sizes":[],"default_left":[0,0,0,0,0,0,0,0,0],"id":75,"left_children":[1,3,5,-1,7,-1,-1,-1,-1],"loss_changes":[2.877947E-2,5.3536896E-2,4.963903E-2,0E0,4.629092E-2,0E0,0E0,0E0,0E0],"parents":[2147483647,0,0,1,1,2,2,4,4],"right_children":[2,4,6,-1,8,-1,-1,-1,-1],"split_conditions":[2E0,5.1511544E-1,4.867548E-6,2.181247E-2,6.3145924E-1,-1.5120254E-2,5.215177E-2,5.678409E-3,-6.589301E-2],"split_indices":[10,11,14,0,12,0,0,0,0],"split_type":[0,0,0,0,0,0,0,0,0],"sum_hessian":[5.836243E0,3.556229E0,2.280014E0,1.4111114E0,2.1451178E0,1.2629937E0,1.0170205E0,1.1128235E0,1.0322943E0],"tree_param":{"num_deleted":"0","num_feature":"15","num_nodes":"9","size_leaf_vector":"1"}},{"base_weights":[3.597447E-4,-4.5730807E-2,2.6370402E-2,-1.2719141E-1,2.1895507E-2,1.4653015E-2,-7.769923E-2],"categories":[],"categories_nodes":[],"categories_segments":[],"categories_sizes":[],"default_left":[0,0,0,0,0,0,0],"id":76,"left_children":[1,3,-1,5,-1,-1,-1],"loss_changes":[3.1447217E-2,5.870869E-2,0E0,9.1437496E-2,0E0,0E0,0E0],"parents":[2147483647,0,0,1,1,3,3],"right_children":[2,4,-1,6,-1,-1,-1],"split_conditions":[7.662373E-1,6.4E1,2.6370402E-2,2.3010408E1,2.1895507E-2,1.4653015E-2,-7.769923E-2],"split_indices":[12,13,0,0,0,0,0],"split_type":[0,0,0,0,0,0,0],"sum_hessian":[5.7976465E0,4.1108823E0,1.6867644E0,2.3956428E0,1.7152395E0,1.2952237E0,1.100419E0],"tree_param":{"num_deleted":"0","num_feature":"15","num_nodes":"7","size_leaf_vector":"1"}},{"base_weights":[-2.0660628E-3,-4.0220182E-2,2.9790742E-2,2.6062079E-2,-1.1401463E-1,-7.568854E-2,1.4386628E-2],"categories":[],"categories_nodes":[],"categories_segments":[],"categories_sizes":[],"default_left":[0,0,0,0,0,0,0],"id":77,"left_children":[1,3,-1,-1,5,-1,-1],"loss_changes":[3.0128404E-2,6.262425E-2,0E0,0E0,1.0143499E-1,0E0,0E0],"parents":[2147483647,0,0,1,1,4,4],"right_children":[2,4,-1,-1,6,-1,-1],"split_conditions":[2.7430395E1,4.0527652E-6,2.9790742E-2,2.6062079E-2,6.527876E-6,-7.568854E-2,1.4386628E-2],"split_indices":[0,14,0,0,14,0,0],"split_type":[0,0,0,0,0,0,0],"sum_hessian":[5.757229E0,4.6211147E0,1.1361141E0,1.6324176E0,2.988697E0,1.3114191E0,1.6772779E0],"tree_param":{"num_deleted":"0","num_feature":"15","num_nodes":"7","size_leaf_vector":"1"}},{"base_weights":[-2.4039461E-3,-5.9291005E-2,5.447586E-2,5.886676E-3,-3.816826E-2,3.4214716E-2,-1.6370656E-2],"categories":[],"categories_nodes":[],"categories_segments":[],"categories_sizes":[],"default_left":[0,0,0,0,0,0,0],"id":78,"left_children":[1,3,5,-1,-1,-1,-1],"loss_changes":[2.4947323E-2,2.3053607E-2,3.141072E-2,0E0,0E0,0E0,0E0],"parents":[2147483647,0,0,1,1,2,2],"right_children":[2,4,6,-1,-1,-1,-1],"split_conditions":[3.7321105E0,2.3010408E1,1.5689036E4,5.886676E-3,-3.816826E-2,3.4214716E-2,-1.6370656E-2],"split_indices":[7,0,2,0,0,0,0],"split_type":[0,0,0,0,0,0,0],"sum_hessian":[5.7117567E0,2.834502E0,2.8772547E0,1.640319E0,1.194183E0,1.8310336E0,1.046221E0],"tree_param":{"num_deleted":"0","num_feature":"15","num_nodes":"7","size_leaf_vector":"1"}},{"base_weights":[-3.832956E-3,-4.0276915E-2,2.810148E-2,2.0159274E-2,-1.00981474E-1,-6.617731E-2,1.1930045E-2],"categories":[],"categories_nodes":[],"categories_segments":[],"categories_sizes":[],"default_left":[0,0,0,0,0,0,0],"id":79,"left_children":[1,3,-1,-1,5,-1,-1],"loss_changes":[2.755233E-2,4.312907E-2,0E0,0E0,7.542823E-2,0E0,0E0],"parents":[2147483647,0,0,1,1,4,4],"right_children":[2,4,-1,-1,6,-1,-1],"split_conditions":[2.7430395E1,4.0527652E-6,2.810148E-2,2.0159274E-2,6.527876E-6,-6.617731E-2,1.1930045E-2],"split_indices":[0,14,0,0,14,0,0],"split_type":[0,0,0,0,0,0,0],"sum_hessian":[5.6919518E0,4.5705533E0,1.1213981E0,1.6111425E0,2.959411E0,1.2931792E0,1.6662318E0],"tree_param":{"num_deleted":"0","num_feature":"15","num_nodes":"7","size_leaf_vector":"1"}},{"base_weights":[-3.6855887E-3,2.7672019E-2,-3.7289176E-2,-1.1280261E-1,5.804332E-2,1.2565201E-2,-6.854814E-2,-9.0604955E-3,3.6571447E-2],"categories":[],"categories_nodes":[],"categories_segments":[],"categories_sizes":[],"default_left":[0,0,0,0,0,0,0,0,0],"id":80,"left_children":[1,-1,3,5,7,-1,-1,-1,-1],"loss_changes":[2.4898035E-2,0E0,4.7164273E-2,7.199193E-2,2.1456253E-2,0E0,0E0,0E0,0E0],"parents":[2147483647,0,0,2,2,3,3,4,4],"right_children":[2,-1,4,6,8,-1,-1,-1,-1],"split_conditions":[5.4742517E0,2.7672019E-2,2.0124115E1,6.8E1,3.6641865E0,1.2565201E-2,-6.854814E-2,-9.0604955E-3,3.6571447E-2],"split_indices":[1,0,0,13,7,0,0,0,0],"split_type":[0,0,0,0,0,0,0,0,0],"sum_hessian":[5.657E0,1.0148984E0,4.6421013E0,2.4880488E0,2.1540527E0,1.3375821E0,1.1504667E0,1.1256647E0,1.028388E0],"tree_param":{"num_deleted":"0","num_feature":"15","num_nodes":"9","size_leaf_vector":"1"}},{"base_weights":[-2.7927218E-3,2.7321141E-2,-3.6714774E-2,3.117614E-2,-9.5135316E-2,-2.0051591E-1,3.4972265E-2,-7.4895926E-2,-1.9306011E-2],"categories":[],"categories_nodes":[],"categories_segments":[],"categories_sizes":[],"default_left":[0,0,0,0,0,0,0,0,0],"id":81,"left_children":[1,-1,3,-1,5,7,-1,-1,-1],"loss_changes":[2.441277E-2,0E0,5.567599E-2,0E0,1.2286923E-1,6.3152313E-3,0E0,0E0,0E0],"parents":[2147483647,0,0,2,2,4,4,5,5],"right_children":[2,-1,4,-1,6,8,-1,-1,-1],"split_conditions":[7.6742954E3,2.7321141E-2,5.7029263E1,3.117614E-2,1.0087129E1,4.4E1,3.4972265E-2,-7.4895926E-2,-1.9306011E-2],"split_indices":[2,0,3,0,1,13,0,0,0],"split_type":[0,0,0,0,0,0,0,0,0],"sum_hessian":[5.617125E0,1.0439078E0,4.5732174E0,1.1136069E0,3.4596105E0,2.345157E0,1.1144534E0,1.1108059E0,1.234351E0],"tree_param":{"num_deleted":"0","num_feature":"15","num_nodes":"9","size_leaf_vector":"1"}},{"base_weights":[-2.1874348E-3,6.292074E-2,-5.506302E-2,4.343359E-2,-1.13707045E-2,-3.8910773E-2,1.7795207E-2],"categories":[],"categories_nodes":[],"categories_segments":[],"categories_sizes":[],"default_left":[0,0,0,0,0,0,0],"id":82,"left_children":[1,3,5,-1,-1,-1,-1],"loss_changes":[2.607566E-2,3.3632334E-2,4.318966E-2,0E0,0E0,0E0,0E0],"parents":[2147483647,0,0,1,1,2,2],"right_children":[2,4,6,-1,-1,-1,-1],"split_conditions":[8.257595E0,5.408175E-1,2E0,4.343359E-2,-1.13707045E-2,-3.8910773E-2,1.7795207E-2],"split_indices":[1,12,10,0,0,0,0],"split_type":[0,0,0,0,0,0,0],"sum_hessian":[5.5679536E0,2.410193E0,3.1577604E0,1.089591E0,1.3206019E0,1.8297734E0,1.327987E0],"tree_param":{"num_deleted":"0","num_feature":"15","num_nodes":"7","size_leaf_vector":"1"}},{"base_weights":[1.6098996E-4,-4.3833487E-2,2.1637151E-2,2.0941935E-2,-1.1387335E-1,-5.838991E-2,5.8558816E-3],"categories":[],"categories_nodes":[],"categories_segments":[],"categories_sizes":[],"default_left":[0,0,0,0,0,0,0],"id":83,"left_children":[1,3,-1,-1,5,-1,-1],"loss_changes":[2.3882303E-2,4.5228347E-2,0E0,0E0,3.9110053E-2,0E0,0E0],"parents":[2147483647,0,0,1,1,4,4],"right_children":[2,4,-1,-1,6,-1,-1],"split_conditions":[5.267556E0,1.0447454E4,2.1637151E-2,2.0941935E-2,1.4605515E4,-5.838991E-2,5.8558816E-3],"split_indices":[7,2,0,0,2,0,0],"split_type":[0,0,0,0,0,0,0],"sum_hessian":[5.544875E0,3.6837204E0,1.8611548E0,1.4059286E0,2.2777917E0,1.132843E0,1.1449487E0],"tree_param":{"num_deleted":"0","num_feature":"15","num_nodes":"7","size_leaf_vector":"1"}},{"base_weights":[-1.4796533E-3,2.3790238E-2,-4.2440522E-2,-4.2789854E-2,3.8578182E-2,-2.709504E-2,4.0816665E-2],"categories":[],"categories_nodes":[],"categories_segments":[],"categories_sizes":[],"default_left":[0,0,0,0,0,0,0],"id":84,"left_children":[1,-1,3,-1,5,-1,-1],"loss_changes":[2.4924062E-2,0E0,4.588398E-2,0E0,5.6735866E-2,0E0,0E0],"parents":[2147483647,0,0,2,2,4,4],"right_children":[2,-1,4,-1,6,-1,-1],"split_conditions":[1.2769916E1,2.3790238E-2,2.0124115E1,-4.2789854E-2,4.559998E-6,-2.709504E-2,4.0816665E-2],"split_indices":[0,0,0,0,14,0,0],"split_type":[0,0,0,0,0,0,0],"sum_hessian":[5.5154295E0,1.5407822E0,3.9746473E0,1.4370351E0,2.537612E0,1.1243436E0,1.4132684E0],"tree_param":{"num_deleted":"0","num_feature":"15","num_nodes":"7","size_leaf_vector":"1"}},{"base_weights":[-1.8346957E-3,-4.0913712E-2,2.1516684E-2,4.5704562E-2,-3.920745E-2,-2.0265771E-2,4.2319804E-2],"categories":[],"categories_nodes":[],"categories_segments":[],"categories_sizes":[],"default_left":[0,0,0,0,0,0,0],"id":85,"left_children":[1,3,-1,5,-1,-1,-1],"loss_changes":[2.1573126E-2,4.3853514E-2,0E0,4.4307824E-2,0E0,0E0,0E0],"parents":[2147483647,0,0,1,1,3,3],"right_children":[2,4,-1,6,-1,-1,-1],"split_conditions":[7.662373E-1,2.1748243E1,2.1516684E-2,3E0,-3.920745E-2,-2.0265771E-2,4.2319804E-2],"split_indices":[12,0,0,9,0,0,0],"split_type":[0,0,0,0,0,0,0],"sum_hessian":[5.4840775E0,3.8711908E0,1.6128868E0,2.2201188E0,1.6510723E0,1.1481365E0,1.0719821E0],"tree_param":{"num_deleted":"0","num_feature":"15","num_nodes":"7","size_leaf_vector":"1"}},{"base_weights":[-5.916269E-4,-4.2888477E-2,2.0751368E-2,3.750559E-2,-3.657776E-2,-1.3734023E-2,3.0330312E-2],"categories":[],"categories_nodes":[],"categories_segments":[],"categories_sizes":[],"default_left":[0,0,0,0,0,0,0],"id":86,"left_children":[1,3,-1,5,-1,-1,-1],"loss_changes":[2.2033418E-2,3.405603E-2,0E0,2.0862494E-2,0E0,0E0,0E0],"parents":[2147483647,0,0,1,1,3,3],"right_children":[2,4,-1,6,-1,-1,-1],"split_conditions":[5.267556E0,3.0228558E0,2.0751368E-2,8.843381E0,-3.657776E-2,-1.3734023E-2,3.0330312E-2],"split_indices":[7,7,0,1,0,0,0],"split_type":[0,0,0,0,0,0,0],"sum_hessian":[5.461671E0,3.6399891E0,1.8216816E0,2.0650067E0,1.5749825E0,1.0153818E0,1.0496249E0],"tree_param":{"num_deleted":"0","num_feature":"15","num_nodes":"7","size_leaf_vector":"1"}},{"base_weights":[-2.929402E-4,6.413725E-2,-5.3313278E-2,4.2624276E-2,-9.982688E-3,-4.092245E-2,1.3217096E-2],"categories":[],"categories_nodes":[],"categories_segments":[],"categories_sizes":[],"default_left":[0,0,0,0,0,0,0],"id":87,"left_children":[1,3,5,-1,-1,-1,-1],"loss_changes":[2.542512E-2,3.0253816E-2,3.90197E-2,0E0,0E0,0E0,0E0],"parents":[2147483647,0,0,1,1,2,2],"right_children":[2,4,6,-1,-1,-1,-1],"split_conditions":[8.257595E0,5.408175E-1,4.8116216E-1,4.2624276E-2,-9.982688E-3,-4.092245E-2,1.3217096E-2],"split_indices":[1,12,12,0,0,0,0],"split_type":[0,0,0,0,0,0,0],"sum_hessian":[5.4417567E0,2.3619037E0,3.0798528E0,1.0573418E0,1.3045619E0,1.4454213E0,1.6344315E0],"tree_param":{"num_deleted":"0","num_feature":"15","num_nodes":"7","size_leaf_vector":"1"}},{"base_weights":[5.7933724E-4,-3.2631855E-2,2.5886416E-2,1.8628253E-2,-8.721705E-2,-5.8591265E-2,1.1552144E-2],"categories":[],"categories_nodes":[],"categories_segments":[],"categories_sizes":[],"default_left":[0,0,0,0,0,0,0],"id":88,"left_children":[1,3,-1,-1,5,-1,-1],"loss_changes":[2.108554E-2,3.3086255E-2,0E0,0E0,5.9308376E-2,0E0,0E0],"parents":[2147483647,0,0,1,1,4,4],"right_children":[2,4,-1,-1,6,-1,-1],"split_conditions":[2.7430395E1,4.0527652E-6,2.5886416E-2,1.8628253E-2,6.527876E-6,-5.8591265E-2,1.1552144E-2],"split_indices":[0,14,0,0,14,0,0],"split_type":[0,0,0,0,0,0,0],"sum_hessian":[5.418364E0,4.3514824E0,1.0668818E0,1.5405241E0,2.8109584E0,1.2139078E0,1.5970504E0],"tree_param":{"num_deleted":"0","num_feature":"15","num_nodes":"7","size_leaf_vector":"1"}},{"base_weights":[-4.849288E-5,-5.203997E-2,5.268113E-2,8.723766E-3,-3.2960244E-2,3.5860047E-2,-1.0737713E-2],"categories":[],"categories_nodes":[],"categories_segments":[],"categories_sizes":[],"default_left":[0,0,0,0,0,0,0],"id":89,"left_children":[1,3,5,-1,-1,-1,-1],"loss_changes":[2.0260688E-2,2.0648703E-2,2.5982868E-2,0E0,0E0,0E0,0E0],"parents":[2147483647,0,0,1,1,2,2],"right_children":[2,4,6,-1,-1,-1,-1],"split_conditions":[3.7321105E0,3E0,7.2E1,8.723766E-3,-3.2960244E-2,3.5860047E-2,-1.0737713E-2],"split_indices":[7,9,13,0,0,0,0],"split_type":[0,0,0,0,0,0,0],"sum_hessian":[5.390378E0,2.720772E0,2.6696057E0,1.3392456E0,1.3815265E0,1.3206393E0,1.3489666E0],"tree_param":{"num_deleted":"0","num_feature":"15","num_nodes":"7","size_leaf_vector":"1"}},{"base_weights":[1.20599456E-4,6.163115E-2,-4.709218E-2,4.4956446E-2,-1.676855E-2,-3.4629386E-2,1.8070407E-2],"categories":[],"categories_nodes":[],"categories_segments":[],"categories_sizes":[],"default_left":[0,0,0,0,0,0,0],"id":90,"left_children":[1,3,5,-1,-1,-1,-1],"loss_changes":[2.1410683E-2,4.156279E-2,3.7556857E-2,0E0,0E0,0E0,0E0],"parents":[2147483647,0,0,1,1,2,2],"right_children":[2,4,6,-1,-1,-1,-1],"split_conditions":[8.045086E0,3E0,6.527876E-6,4.4956446E-2,-1.676855E-2,-3.4629386E-2,1.8070407E-2],"split_indices":[1,9,14,0,0,0,0],"split_type":[0,0,0,0,0,0,0],"sum_hessian":[5.37321E0,2.200685E0,3.172525E0,1.0999267E0,1.1007582E0,1.8921864E0,1.2803384E0],"tree_param":{"num_deleted":"0","num_feature":"15","num_nodes":"7","size_leaf_vector":"1"}},{"base_weights":[1.9531653E-3,-4.1691575E-2,6.253804E-2,1.7329607E-2,-3.9647672E-2,-1.2774431E-2,4.0347174E-2],"categories":[],"categories_nodes":[],"categories_segments":[],"categories_sizes":[],"default_left":[0,0,0,0,0,0,0],"id":91,"left_children":[1,3,5,-1,-1,-1,-1],"loss_changes":[1.9396529E-2,4.6240147E-2,2.8861871E-2,0E0,0E0,0E0,0E0],"parents":[2147483647,0,0,1,1,2,2],"right_children":[2,4,6,-1,-1,-1,-1],"split_conditions":[2E0,6.2114573E-6,8.843381E0,1.7329607E-2,-3.9647672E-2,-1.2774431E-2,4.0347174E-2],"split_indices":[10,14,1,0,0,0,0],"split_type":[0,0,0,0,0,0,0],"sum_hessian":[5.3494244E0,3.2906914E0,2.0587327E0,1.7396517E0,1.5510398E0,1.0024291E0,1.0563036E0],"tree_param":{"num_deleted":"0","num_feature":"15","num_nodes":"7","size_leaf_vector":"1"}},{"base_weights":[2.2179724E-3,3.6220834E-2,-2.4218546E-2,-2.919795E-2,3.8122837E-2,2.54938E-2,-5.216922E-2],"categories":[],"categories_nodes":[],"categories_segments":[],"categories_sizes":[],"default_left":[0,0,0,0,0,0,0],"id":92,"left_children":[1,3,-1,5,-1,-1,-1],"loss_changes":[2.0771896E-2,3.4489457E-2,0E0,7.795307E-2,0E0,0E0,0E0],"parents":[2147483647,0,0,1,1,3,3],"right_children":[2,4,-1,6,-1,-1,-1],"split_conditions":[8.5493237E-1,1.0087129E1,-2.4218546E-2,7.1346027E-1,3.8122837E-2,2.54938E-2,-5.216922E-2],"split_indices":[12,1,0,11,0,0,0],"split_type":[0,0,0,0,0,0,0],"sum_hessian":[5.3280873E0,4.17849E0,1.149597E0,2.8238547E0,1.3546355E0,1.8090862E0,1.0147685E0],"tree_param":{"num_deleted":"0","num_feature":"15","num_nodes":"7","size_leaf_vector":"1"}},{"base_weights":[-4.6984368E-4,3.4777023E-2,-2.345834E-2,-4.4107046E-2,4.6215422E-2,-6.039965E-2,2.9686725E-2],"categories":[],"categories_nodes":[],"categories_segments":[],"categories_sizes":[],"default_left":[0,0,0,0,0,0,0],"id":93,"left_children":[1,3,-1,5,-1,-1,-1],"loss_changes":[1.9972796E-2,5.407548E-2,0E0,1.0544418E-1,0E0,0E0,0E0],"parents":[2147483647,0,0,1,1,3,3],"right_children":[2,4,-1,6,-1,-1,-1],"split_conditions":[1.2216401E1,7.662373E-1,-2.345834E-2,4.3E1,4.6215422E-2,-6.039965E-2,2.9686725E-2],"split_indices":[1,12,0,13,0,0,0],"split_type":[0,0,0,0,0,0,0],"sum_hessian":[5.2979064E0,4.025134E0,1.2727726E0,2.8021147E0,1.2230192E0,1.1409351E0,1.6611798E0],"tree_param":{"num_deleted":"0","num_feature":"15","num_nodes":"7","size_leaf_vector":"1"}},{"base_weights":[-1.6163772E-3,2.182074E-2,-4.5592703E-2,3.416591E-2,-4.857014E-2,4.2427808E-2,-2.6344772E-2],"categories":[],"categories_nodes":[],"categories_segments":[],"categories_sizes":[],"default_left":[0,0,0,0,0,0,0],"id":94,"left_children":[1,-1,3,5,-1,-1,-1],"loss_changes":[2.376829E-2,0E0,4.7693595E-2,5.8498945E-2,0E0,0E0,0E0],"parents":[2147483647,0,0,2,2,3,3],"right_children":[2,-1,4,6,-1,-1,-1],"split_conditions":[3.7E1,2.182074E-2,1.1383577E1,6.1985534E-1,-4.857014E-2,4.2427808E-2,-2.6344772E-2],"split_indices":[13,0,1,12,0,0,0],"split_type":[0,0,0,0,0,0,0],"sum_hessian":[5.254961E0,1.7099379E0,3.5450232E0,2.5218782E0,1.0231448E0,1.2570959E0,1.2647824E0],"tree_param":{"num_deleted":"0","num_feature":"15","num_nodes":"7","size_leaf_vector":"1"}},{"base_weights":[-2.841027E-3,-3.7732184E-2,2.5425045E-2,-1.05733424E-1,3.0347833E-2,-5.3312223E-2,9.009764E-3],"categories":[],"categories_nodes":[],"categories_segments":[],"categories_sizes":[],"default_left":[0,0,0,0,0,0,0],"id":95,"left_children":[1,3,-1,5,-1,-1,-1],"loss_changes":[2.2222208E-2,5.927621E-2,0E0,4.3856286E-2,0E0,0E0,0E0],"parents":[2147483647,0,0,1,1,3,3],"right_children":[2,4,-1,6,-1,-1,-1],"split_conditions":[8.353728E-6,7.1694857E-1,2.5425045E-2,2.0124115E1,3.0347833E-2,-5.3312223E-2,9.009764E-3],"split_indices":[14,11,0,0,0,0,0],"split_type":[0,0,0,0,0,0,0],"sum_hessian":[5.2249413E0,4.1435995E0,1.0813416E0,2.9419549E0,1.2016447E0,1.7207855E0,1.2211692E0],"tree_param":{"num_deleted":"0","num_feature":"15","num_nodes":"7","size_leaf_vector":"1"}},{"base_weights":[-1.9300965E-4,2.0446163E-2,-4.1701972E-2,-4.73593E-2,4.078917E-2,-2.3214301E-2,4.516202E-2],"categories":[],"categories_nodes":[],"categories_segments":[],"categories_sizes":[],"default_left":[0,0,0,0,0,0,0],"id":96,"left_children":[1,-1,3,-1,5,-1,-1],"loss_changes":[2.0417374E-2,0E0,4.9316477E-2,0E0,5.5889644E-2,0E0,0E0],"parents":[2147483647,0,0,2,2,4,4],"right_children":[2,-1,4,-1,6,-1,-1],"split_conditions":[1.4606362E1,2.0446163E-2,3.4277923E-6,-4.73593E-2,2.5157667E1,-2.3214301E-2,4.516202E-2],"split_indices":[0,0,14,0,0,0,0],"split_type":[0,0,0,0,0,0,0],"sum_hessian":[5.1949854E0,1.7203777E0,3.474608E0,1.0634154E0,2.4111924E0,1.3030845E0,1.1081079E0],"tree_param":{"num_deleted":"0","num_feature":"15","num_nodes":"7","size_leaf_vector":"1"}},{"base_weights":[-9.1911457E-4,-3.9998136E-2,1.9330824E-2,2.085271E-2,-1.09464325E-1,-5.003384E-2,1.5215403E-4],"categories":[],"categories_nodes":[],"categories_segments":[],"categories_sizes":[],"default_left":[0,0,0,0,0,0,0],"id":97,"left_children":[1,3,-1,-1,5,-1,-1],"loss_changes":[1.8317116E-2,4.1640185E-2,0E0,0E0,1.9785669E-2,0E0,0E0],"parents":[2147483647,0,0,1,1,4,4],"right_children":[2,4,-1,-1,6,-1,-1],"split_conditions":[5.267556E0,1.0447454E4,1.9330824E-2,2.085271E-2,1.4605515E4,-5.003384E-2,1.5215403E-4],"split_indices":[7,2,0,0,2,0,0],"split_type":[0,0,0,0,0,0,0],"sum_hessian":[5.16276E0,3.4736722E0,1.6890876E0,1.3480215E0,2.125651E0,1.0577836E0,1.0678672E0],"tree_param":{"num_deleted":"0","num_feature":"15","num_nodes":"7","size_leaf_vector":"1"}},{"base_weights":[-2.2642447E-3,-2.2721037E-2,4.07031E-2,4.0134225E-2,-4.2766307E-2,-3.7867088E-2,1.6645847E-2],"categories":[],"categories_nodes":[],"categories_segments":[],"categories_sizes":[],"default_left":[0,0,0,0,0,0,0],"id":98,"left_children":[1,-1,3,-1,5,-1,-1],"loss_changes":[2.246847E-2,0E0,4.0878005E-2,0E0,3.27799E-2,0E0,0E0],"parents":[2147483647,0,0,2,2,4,4],"right_children":[2,-1,4,-1,6,-1,-1],"split_conditions":[9.193493E3,-2.2721037E-2,1.6549171E1,4.0134225E-2,4.867548E-6,-3.7867088E-2,1.6645847E-2],"split_indices":[2,0,0,0,14,0,0],"split_type":[0,0,0,0,0,0,0],"sum_hessian":[5.1407166E0,1.6155417E0,3.5251749E0,1.3816879E0,2.143487E0,1.0050737E0,1.1384134E0],"tree_param":{"num_deleted":"0","num_feature":"15","num_nodes":"7","size_leaf_vector":"1"}},{"base_weights":[-2.192607E-3,-4.670163E-2,1.8314326E-2,1.3984734E-2,-3.8312353E-2],"categories":[],"categories_nodes":[],"categories_segments":[],"categories_sizes":[],"default_left":[0,0,0,0,0],"id":99,"left_children":[1,3,-1,-1,-1],"loss_changes":[2.0074038E-2,3.738341E-2,0E0,0E0,0E0],"parents":[2147483647,0,0,1,1],"right_children":[2,4,-1,-1,-1],"split_conditions":[2E0,6.2114573E-6,1.8314326E-2,1.3984734E-2,-3.8312353E-2],"split_indices":[10,14,0,0,0],"split_type":[0,0,0,0,0],"sum_hessian":[5.1188054E0,3.1578262E0,1.9609793E0,1.6646854E0,1.4931408E0],"tree_param":{"num_deleted":"0","num_feature":"15","num_nodes":"5","size_leaf_vector":"1"}}]},"name":"gbtree"},"learner_model_param":{"base_score":"[9.86E-1]","boost_from_average":"1","num_class":"0","num_feature":"15","num_target":"1"},"objective":{"name":"binary:logistic","reg_loss_param":{"scale_pos_weight":"1"}}},"version":[3,2,0]}